{"version": 1, "inputDim": 63, "labels": ["ABOUT", "AGE", "ALPHABET", "ARREST", "ART", "AWAY", "BANANA", "BARK", "BASKETBALL", "BIG", "BIRD", "BOW", "CALENDAR", "CANDY", "CASTLE", "CHERRY", "CHEW", "CLOSET", "COMB", "CONFUSED", "CONVINCE", "COOL", "CORKSCREW", "CORN", "CROSS", "CURTSEY", "CUT REMOVE VID", "DARK", "DART", "DINNER", "DIP", "DIVIDE", "DOG", "DOLPHIN", "DOWNSIZE", "DROWN", "EMPTY", "ERASE", "EYES AWAKE", "FLASHLIGHT", "FLOAT", "FOLLOW", "FORK", "FRIEND", "GLOVES", "GOOSEBUMPS", "HAIRDRYER", "HANDSOME", "HAT", "HOODIE", "HURDLE-TRIP", "IMAGINE", "IMPROVE", "IRON", "ISLAND", "ITALY", "JACKET", "KANGAROO", "KEY", "KISS", "KNIGHT", "KNITTING", "LEAF", "LEMON", "LETTUCE", "LICK", "LICK ENVELOPE", "MAGNET", "MAIL", "MEAN", "MEDITATE", "MONEY", "MOP", "NECK", "NECKLACE", "NEUTRAL", "NEXT", "NO BIG_DEAL", "NOTHING", "OIL", "PAIR", "PANTS", "PATIENT", "PEEL", "PEG", "PEPSI", "PHYSICS", "PINEAPPLE", "PIPE", "PLAYGROUND", "PLOW", "POP", "PREGNANT", "PRETTY", "PROBLEM", "PROXIMALIZATION", "RAZOR", "RELAX", "REMEMBER", "RESIST", "ROAR", "ROW", "SCIENCE", "SENATE", "SENTENCE", "SHARP", "SHARPEN", "SHAVE", "SHOOT", "SHOP", "SHOULDER", "SHOUT", "SLED", "SLICE", "SLIDE", "SLIP", "SNEEZE", "SOAP", "SOMERSAULT", "STACK", "STAMP", "STETHOSCOPE", "STORY", "STRAWBERRY", "SUPERVISE", "SUPPORT", "SUSPENDERS", "TAKE OFF", "THANK YOU", "THIEF", "TOUGH", "TOWEL", "TOY", "TRIP", "VIDEOCAMERA", "VOLUNTEER", "WADE", "WASH", "WASH DISHES", "WATCH", "WHAT FOR", "WHISTLE", "WINDMILL", "WITHOUT", "WOW", "WRAP", "WRISTWATCH", "YAWN"], "layers": [{"in": 63, "out": 192, "W": [-0.02965705096721649, -0.15119507908821106, -0.11516430228948593, -0.0035590827465057373, -0.02896953374147415, 0.10064700245857239, 0.07508713006973267, -0.03364633023738861, -0.10515417903661728, 0.03727783262729645, 0.11107906699180603, -0.06891970336437225, -0.05832026153802872, 0.05996207892894745, -0.10881354659795761, -0.06743891537189484, 0.10555851459503174, 0.0407576709985733, 0.12415647506713867, -0.13707363605499268, 0.04001343250274658, 0.12507379055023193, 0.12264484167098999, -0.03214915841817856, 0.05924457311630249, -0.14874078333377838, 0.0741799920797348, 0.03422200679779053, 0.03452324867248535, 0.02851216495037079, 0.059861138463020325, 0.07537738978862762, 0.11752369999885559, 0.007997140288352966, 0.019352048635482788, -0.11170358955860138, 0.02530592679977417, -0.10995505750179291, 0.11213836073875427, 0.03865981101989746, -0.004833251237869263, -0.07030774652957916, 0.14619985222816467, -0.03794972598552704, 0.07312153279781342, 0.07493403553962708, 0.09407615661621094, -0.14705944061279297, 0.06998580694198608, 0.008765950798988342, -0.10255773365497589, 0.037673354148864746, 0.12658828496932983, -0.1070481538772583, 0.1182757318019867, 0.03705371916294098, -0.07707750797271729, -0.07359576225280762, 0.008092015981674194, 0.10540097951889038, -0.1524510234594345, 0.04861803352832794, -0.0064866989850997925, -0.15325695276260376, 0.013451710343360901, -0.14566440880298615, 0.14903202652931213, 0.12501728534698486, 0.15298020839691162, 0.028997361660003662, -0.0029404014348983765, 0.09617984294891357, -0.005177095532417297, 0.15058571100234985, 0.04784977436065674, 0.08934585750102997, -0.11809980869293213, 0.10470789670944214, 0.13085272908210754, 0.05398416519165039, -0.1100853681564331, 0.1021152138710022, 0.007912039756774902, -0.1471177637577057, -0.1271778643131256, 0.010209515690803528, 0.10503330826759338, 0.11877381801605225, 0.13044500350952148, 0.028687894344329834, 0.03587299585342407, 0.05692856013774872, 0.016957178711891174, -0.12469431757926941, 0.014939159154891968, 0.07398346066474915, 0.008648991584777832, -0.03766091912984848, -0.14956291019916534, -0.14538250863552094, 0.001648247241973877, -0.019945353269577026, -0.1091754287481308, 0.08349837362766266, 0.08531568944454193, -0.006076797842979431, -0.11179743707180023, -0.011466294527053833, 0.014380112290382385, -0.10687992721796036, 0.08805462718009949, 0.015689492225646973, -0.0529828742146492, 0.012930229306221008, 0.06835785508155823, 0.06269483268260956, -0.042789116501808167, 0.126641184091568, -0.02718205749988556, -0.015254810452461243, -0.11313387751579285, 0.09415599703788757, -0.048065103590488434, -0.1262604296207428, 0.11992654204368591, -0.06869880855083466, -0.04003537446260452, -0.07169655710458755, 0.1436135470867157, -0.04222514480352402, -0.0786462128162384, -0.10900437831878662, 0.030256062746047974, -0.11489319801330566, -0.11816103011369705, 0.07283550500869751, 0.019904285669326782, 0.004151254892349243, -0.08605092763900757, -0.12558604776859283, -0.09878799319267273, 0.1284174919128418, 0.10876420140266418, -0.012593299150466919, -0.012519598007202148, -0.0629749670624733, -0.08973037451505661, 0.1106564998626709, 0.14187169075012207, -0.07791448384523392, 0.0584130734205246, 0.10959365963935852, -0.08045998960733414, 0.02205115556716919, 0.09622931480407715, 0.010568350553512573, 0.004984721541404724, -0.03580450266599655, -0.043530575931072235, 0.022244170308113098, 0.12036159634590149, -0.11885552108287811, -0.14780104160308838, 0.04520599544048309, 0.11157494783401489, 0.08772273361682892, 0.12892049551010132, 0.1373400092124939, 0.017041876912117004, -0.14499400556087494, -0.1525048166513443, 0.021200090646743774, 0.13201302289962769, 0.04916507005691528, -0.0853283479809761, 0.13630202412605286, -0.006171956658363342, -0.14209042489528656, -0.11392064392566681, -0.14051774144172668, -0.006734862923622131, 0.061758190393447876, -0.08741823583841324, 0.12988707423210144, 0.1173800528049469, -0.0878973975777626, -0.059625618159770966, 0.09954833984375, 0.13628041744232178, -0.04767071455717087, 0.08127988874912262, -0.14261563122272491, 0.1272454857826233, -0.13113495707511902, 0.057690903544425964, -0.10961198061704636, 0.06374967098236084, -0.038804955780506134, 0.14270177483558655, 0.14379355311393738, 0.0558946430683136, 0.120669424533844, -0.019073694944381714, 0.06537038087844849, -0.06428686529397964, 0.11801493167877197, 0.08134868741035461, 0.011785939335823059, -0.06914765387773514, -0.11291159689426422, 0.01753672957420349, -0.1371029168367386, 0.09389597177505493, 0.06065233051776886, 0.03352333605289459, -0.061752885580062866, -0.13479995727539062, 0.06925119459629059, 0.029831722378730774, -0.01715971529483795, 0.0706801563501358, -0.035922370851039886, -0.0036746561527252197, -0.04569174349308014, -0.03617482632398605, 0.09938529133796692, 0.13979634642601013, -0.0251234769821167, -0.14533334970474243, -0.09186795353889465, -0.08648942410945892, 0.0006489604711532593, 0.10649335384368896, 0.15063965320587158, 0.07671163976192474, 0.028113678097724915, 0.08516059815883636, 0.03150717914104462, 0.11782121658325195, 0.003700956702232361, 0.13436827063560486, 0.031642600893974304, 0.009567499160766602, -0.14918063580989838, 0.09584002196788788, -0.08484029769897461, -0.04018016159534454, 0.13244971632957458, 0.024454787373542786, 0.13328245282173157, -0.05215993523597717, 0.016878515481948853, -0.11842726916074753, 0.0434974730014801, -0.12159430980682373, 0.015520498156547546, -0.10899940133094788, -0.14836548268795013, -0.07168394327163696, 0.01989850401878357, 0.06560422480106354, -0.11667263507843018, -0.10778112709522247, 0.009840607643127441, -0.14091534912586212, -0.08010099828243256, -0.01204746961593628, -0.13070546090602875, 0.10031682252883911, -0.13924020528793335, -0.12779156863689423, -0.11031869053840637, -0.1145118996500969, 0.019270777702331543, -0.1404682844877243, 0.049168944358825684, -0.0789719969034195, -0.017009109258651733, 0.052197232842445374, -0.089322529733181, 0.0047036707401275635, 0.06955035030841827, -0.11216450482606888, 0.08260667324066162, 0.06163114309310913, 0.13331645727157593, -0.08788430690765381, -0.02222384512424469, -0.09370038658380508, 0.0646413266658783, -0.0471038892865181, 0.15080180764198303, 0.1066594123840332, -0.15067780017852783, 0.06796447932720184, -0.10542729496955872, 0.06881016492843628, -0.1150834783911705, 0.0468277782201767, 0.006357848644256592, 0.11240601539611816, 0.09649717807769775, -0.051817990839481354, -0.10913197696208954, -0.06932751089334488, 0.11650437116622925, -0.09400546550750732, -0.020465686917304993, -0.11614479124546051, -0.15302592515945435, 0.09732493758201599, 0.15054062008857727, -0.08623912930488586, 0.08533079922199249, -0.009104236960411072, -0.1483267843723297, -0.13041190803050995, 0.02775348722934723, -0.12543705105781555, -0.040239520370960236, -0.07704126089811325, -0.0454900860786438, 0.05111636221408844, -0.03498759865760803, 0.12066158652305603, -0.08162322640419006, -0.02293333411216736, -0.15229475498199463, 0.04213052988052368, 0.043858662247657776, -0.15274158120155334, -0.012971296906471252, 0.006471008062362671, -0.08766498416662216, 0.14785578846931458, 0.14487344026565552, -0.04291693866252899, -0.11399656534194946, -0.02949558198451996, 0.0737510472536087, -0.0821109488606453, -0.048254288733005524, -0.1061723381280899, 0.10169723629951477, 0.11776396632194519, -0.024496600031852722, 0.1388481855392456, 0.0350455641746521, 0.017955109477043152, 0.1312178671360016, -0.13680826127529144, 0.0008729696273803711, 0.01723410189151764, 0.12843537330627441, -0.09736619144678116, -0.06288565695285797, 0.03441174328327179, 0.06581377983093262, 0.06824758648872375, 0.028679639101028442, 0.12176668643951416, 0.11543461680412292, 0.11265119910240173, 0.12620267271995544, -0.1329992115497589, -0.131827712059021, 0.1363537609577179, -0.009713858366012573, 0.08281086385250092, 0.13093993067741394, 0.019906476140022278, -0.038063354790210724, 0.05296209454536438, 0.0047415196895599365, 0.08079290390014648, -0.047133952379226685, 0.07081663608551025, 0.095399871468544, -0.017732903361320496, -0.09794925153255463, -0.11181999742984772, 0.11724677681922913, -0.09719843417406082, -0.08168693631887436, -0.14069795608520508, -0.026648730039596558, 0.007173553109169006, 0.02684888243675232, 0.05139148235321045, -0.030766233801841736, 0.01827852427959442, 0.06600631773471832, -0.07009036093950272, -0.11809077858924866, -0.0695737898349762, 0.03985193371772766, 0.029272347688674927, 0.08582191169261932, 0.060829222202301025, -0.09134256839752197, 0.09888315200805664, 0.08763793110847473, 0.05054116249084473, -0.11278648674488068, 0.08786700665950775, 0.12254458665847778, -0.02473372220993042, -0.09237673878669739, 0.011970803141593933, 0.1533472239971161, 0.02751252055168152, -0.01971319317817688, -0.04227938503026962, -0.04400502145290375, 0.08311007916927338, 0.07213333249092102, -0.07533024996519089, 0.05871604382991791, -0.13657087087631226, -0.0014991164207458496, 0.03519320487976074, 0.04791867733001709, 0.0845021903514862, 0.08848507702350616, -0.042363494634628296, 0.13814708590507507, -0.14940616488456726, 0.09292304515838623, -0.1460973471403122, -0.03281202167272568, 0.07362633943557739, 0.15149348974227905, -0.04131341725587845, 0.018252626061439514, -0.02714398503303528, -0.10506443679332733, -0.015703096985816956, 0.10171827673912048, 0.028521820902824402, 0.03394573926925659, 0.10087853670120239, -0.0915931910276413, -0.11081939935684204, 0.10614147782325745, -0.0839080810546875, 0.005311682820320129, 0.12904810905456543, 0.12186667323112488, -0.13909894227981567, -0.14345572888851166, -0.030455410480499268, 0.07335877418518066, -0.1306672841310501, -0.10472266376018524, 0.07457412779331207, 0.14330244064331055, -0.06109748035669327, 0.08476144075393677, -0.11633463203907013, -0.004966437816619873, -0.06990845501422882, 0.07874931395053864, -0.06799890100955963, -0.09822233021259308, -0.1311100572347641, -0.01483924686908722, -0.13633568584918976, 0.045280978083610535, 0.04174639284610748, 0.020153522491455078, -0.13932856917381287, -0.15053458511829376, 0.15125897526741028, -0.08605111390352249, -0.13172048330307007, -0.13178539276123047, 0.1350460946559906, -0.0218631774187088, 0.12734010815620422, -0.022150084376335144, -0.01408301293849945, -0.01371389627456665, 0.006063491106033325, -0.010040149092674255, -0.04339500516653061, 0.01552821695804596, 0.05034594237804413, -0.07708617299795151, -0.07044631987810135, 0.08442264795303345, -0.12700451910495758, 0.13186302781105042, -0.07746563851833344, -0.027223095297813416, 0.02597668766975403, 0.060284778475761414, 0.06926830112934113, 0.07976457476615906, -0.10911990702152252, 0.052017346024513245, 0.1269323229789734, -0.1451670229434967, 0.05482824146747589, -0.1364322006702423, 0.014589816331863403, 0.038734301924705505, -0.0363493487238884, -0.035648562014102936, 0.05809231102466583, 0.006095528602600098, -0.003793179988861084, 0.030694112181663513, 0.028586342930793762, -0.0968334823846817, -0.14793576300144196, -0.012952730059623718, 0.08204708993434906, 0.012346073985099792, -0.06452838331460953, 0.08475032448768616, 0.1376972496509552, 0.0878017246723175, 0.007345139980316162, -0.11683651059865952, -0.09355570375919342, -0.02630971372127533, -0.048269324004650116, -0.06705611944198608, 9.611248970031738e-06, 0.04933337867259979, 0.1533651053905487, 0.12008818984031677, -0.07378356158733368, 0.11359286308288574, 0.10508903861045837, -0.06250322610139847, 0.07372687757015228, -0.11068806797266006, -0.0833258256316185, 0.14646819233894348, 0.03297828137874603, -0.15252120792865753, -0.09440819919109344, -0.04679343104362488, 0.05500495433807373, -0.02084384858608246, 0.009509861469268799, -0.07622267305850983, -0.10080111771821976, 0.06438042223453522, -0.019729137420654297, -0.013310909271240234, 0.09588667750358582, 0.10093885660171509, 0.06179209053516388, -0.016760647296905518, -0.03016393631696701, -0.10212728381156921, -0.023364007472991943, 0.055319398641586304, 0.11627236008644104, 0.0741971880197525, -0.022160902619361877, 0.05792824923992157, -0.08358468115329742, -0.1072729229927063, 0.109587162733078, 0.02416229248046875, -0.10922263562679291, -0.006238117814064026, 0.04497596621513367, 0.049690574407577515, 0.15113872289657593, -0.0035783201456069946, -0.07583830505609512, 0.005296796560287476, -0.17357252538204193, 0.1715938150882721, 0.29996156692504883, 0.22246839106082916, -0.041104745119810104, -0.004406475927680731, -0.1375487744808197, 0.18654602766036987, -0.2555552124977112, 0.33934301137924194, 0.3357560336589813, -0.11987844109535217, 0.31160876154899597, 0.0691344365477562, 0.10672822594642639, -0.13458532094955444, -0.007151015102863312, 0.2233453392982483, -0.2085719108581543, -0.09397607296705246, 0.02872437983751297, -0.013161283917725086, 0.07670213282108307, -0.14738790690898895, -0.2303970903158188, 0.04068047180771828, 0.1812279224395752, 0.12935258448123932, 0.1396348476409912, 0.07336050271987915, -0.27098846435546875, -0.2902469336986542, 0.04126801714301109, -0.1681339293718338, 0.24501366913318634, -0.1601385772228241, -0.15695561468601227, -0.023254403844475746, 0.013984154909849167, 0.3810865879058838, -0.4274551570415497, 0.12922930717468262, 0.3053763210773468, -0.07377147674560547, -0.2687600553035736, -0.12527072429656982, -0.3067317605018616, 0.19518926739692688, -0.4016306698322296, -0.20257265865802765, 0.01662096008658409, 0.33898669481277466, 0.24141249060630798, -0.1309245228767395, 0.11552164703607559, 0.00562894344329834, -0.20692697167396545, -0.24837860465049744, 0.16349700093269348, -0.2145460695028305, -0.0911877304315567, 0.06107555329799652, 0.1051209568977356, -0.284869909286499, 0.011963891796767712, -0.04169033467769623, -0.24139218032360077, 0.09555952996015549, 0.2453569620847702, -0.2771320641040802, 0.004641905426979065, 0.2636317312717438, -0.08053193986415863, -0.25717905163764954, -0.0860966295003891, 0.023285727947950363, -0.011404176242649555, -0.24484100937843323, -0.2342369556427002, -0.060621146112680435, 0.1326046735048294, 0.05747971683740616, 0.14210417866706848, 0.1333875209093094, -0.1836879998445511, -0.07342708855867386, -0.027358658611774445, -0.15546312928199768, 0.2899729907512665, -0.09558764845132828, 0.026434721425175667, 0.12336542457342148, -0.19574971497058868, 0.17955994606018066, -0.11878163367509842, 0.28453004360198975, -0.025168443098664284, 0.1550363302230835, 0.2140631228685379, -0.27745065093040466, -0.2719089686870575, -0.2242879718542099, -0.19364874064922333, 0.05075796693563461, 0.14035063982009888, 0.4302082359790802, 0.15983478724956512, -0.00315471482463181, 0.05633009225130081, 0.16716240346431732, -0.025769665837287903, 0.22130826115608215, -0.17456167936325073, 0.21675202250480652, -0.2649284899234772, -0.21886077523231506, -0.3857696056365967, 0.09214869141578674, 0.4109609127044678, 0.11986912786960602, -0.2729997932910919, -0.13646647334098816, -0.0061833783984184265, 0.0498499721288681, 0.21265605092048645, 0.22945299744606018, 0.06509607285261154, -0.03821006044745445, 0.08886318653821945, 0.25752073526382446, -0.06714355200529099, 0.12624260783195496, -0.047084417194128036, 0.20176318287849426, -0.25037944316864014, -0.03041420504450798, 0.16172060370445251, 0.032153502106666565, 0.1775074452161789, -0.1360635608434677, -0.11414625495672226, 0.0340573787689209, -0.014206589199602604, 0.11768528819084167, 0.07643590122461319, -0.0009600900229997933, -0.01029955968260765, 0.1536383330821991, 0.114476278424263, -0.08977475762367249, -0.052493780851364136, 0.21235133707523346, -0.08283541351556778, 0.061816293746232986, 0.32994356751441956, -0.11024822294712067, -0.21648000180721283, -0.132320836186409, 0.10178335756063461, 0.050306160002946854, 0.009781819768249989, 0.057127900421619415, 0.32215216755867004, 0.173980712890625, -0.18756574392318726, -0.24257977306842804, -0.22478294372558594, 0.07947507500648499, 0.09591803699731827, 0.40740522742271423, -0.2435767650604248, -0.004401993006467819, -0.04264797270298004, 0.13475969433784485, 0.1624530553817749, -0.11910447478294373, 0.15476620197296143, -0.24499112367630005, 0.008173306472599506, 0.13434788584709167, 0.003855828894302249, 0.1693369597196579, 0.266671359539032, -0.1147923618555069, -0.22112050652503967, 0.16483379900455475, 0.17668573558330536, 0.08892343193292618, 0.2214273363351822, 0.03834851458668709, -0.09057894349098206, 9.036096162162721e-05, 0.1031198650598526, 0.20468267798423767, 0.005650777835398912, -0.010919132269918919, -0.2690970003604889, 0.1273173689842224, -0.14470021426677704, 0.20224454998970032, 0.21542887389659882, 0.2478046715259552, 0.14102815091609955, 0.24508699774742126, 0.17057816684246063, 0.1891930252313614, 0.14289401471614838, -0.09630929678678513, -0.2519482672214508, 0.0438397079706192, -0.21322043240070343, -0.02266630157828331, -0.12628977000713348, -0.261092871427536, 0.15575936436653137, 0.2003401219844818, -0.26975497603416443, -0.193285271525383, -0.02752835862338543, -0.16422304511070251, -0.29750192165374756, 0.03799284249544144, -0.0242929570376873, 0.24629531800746918, 0.03186790272593498, -0.2760884761810303, 0.14754657447338104, 0.0028696036897599697, 0.10704755783081055, -0.2003857046365738, 0.14115934073925018, 0.35687872767448425, -0.06175582855939865, 0.24078333377838135, 0.2152826488018036, -0.07620123028755188, 0.2553720772266388, 0.0013505331007763743, 0.023818988353013992, -0.30963897705078125, -0.27817147970199585, -0.18010467290878296, -0.19339630007743835, 0.34357309341430664, 0.125743106007576, 0.06266481429338455, 0.05773032829165459, -0.00541180744767189, -0.2354172319173813, -0.04894178360700607, 0.08712034672498703, 0.06855565309524536, 0.03727186098694801, -0.23389604687690735, -0.15995079278945923, -0.1220182552933693, 0.36941248178482056, -0.024845879524946213, -0.14755137264728546, -0.13644127547740936, 0.20339256525039673, -0.030492160469293594, 0.016885286197066307, 0.18172483146190643, 0.0901942104101181, -0.0005504642613232136, 0.2409001886844635, -0.22567424178123474, 0.005456929560750723, 0.1046779602766037, 0.18216070532798767, 0.013105176389217377, -0.00973390694707632, 0.05047783628106117, 0.024812066927552223, 0.017337314784526825, -0.11700339615345001, 0.04580008238554001, -0.26500606536865234, 0.09785349667072296, -0.016790084540843964, -0.03321576863527298, -0.23618566989898682, -0.2619500756263733, -0.39969706535339355, -0.0563933402299881, -0.19055324792861938, 0.12408583611249924, 0.20638534426689148, 0.0600895881652832, -0.07723354548215866, -0.03996574506163597, -0.19751553237438202, -0.20808401703834534, 0.10618619620800018, 0.025360900908708572, -0.3026560842990875, 0.14624156057834625, 0.049195755273103714, 0.11380282044410706, 0.0016672289930284023, 0.18092021346092224, -0.009998426772654057, -0.05911378562450409, 0.08692599833011627, -0.06951892375946045, 0.24916890263557434, 0.2807847857475281, 0.30284765362739563, -0.2208154797554016, 0.22141847014427185, 0.21787826716899872, -0.033797454088926315, -0.2658964693546295, 0.06898374110460281, 0.03972656652331352, -0.2314981073141098, 0.3184487223625183, -0.1451488435268402, 0.053965963423252106, 0.05257614701986313, -0.2323054075241089, 0.08829432725906372, -0.060343533754348755, 0.27252450585365295, 0.18555618822574615, 0.06748520582914352, -0.04672592505812645, -0.20123611390590668, 0.11912991106510162, -0.03368992730975151, 0.018000923097133636, 0.09289435297250748, 0.13066650927066803, -0.00020062155090272427, 0.14832846820354462, 0.24500487744808197, -0.2445409744977951, -0.09096939861774445, -0.16807736456394196, 0.1435282677412033, -0.26167967915534973, -0.038969941437244415, -0.014888972043991089, -0.14481675624847412, 0.2517121732234955, 0.0806252658367157, -0.01410483568906784, -0.055754974484443665, 0.0015684992540627718, 0.03203951194882393, -0.11197904497385025, -0.07344220578670502, 0.018864378333091736, 0.05899375304579735, -0.028766736388206482, 0.11630876362323761, 0.05733446404337883, -0.01866326667368412, -0.22776472568511963, 0.038896847516298294, -0.2595982551574707, 0.19008292257785797, -0.12116360664367676, 0.004851136822253466, 0.18511271476745605, 0.008883627131581306, -0.2204321175813675, -0.20292983949184418, -0.08629874140024185, -0.003154559526592493, 0.14556555449962616, -0.22693349421024323, -0.12580233812332153, -0.28125685453414917, -0.16422675549983978, -0.14465631544589996, -0.17860348522663116, 0.2724231779575348, -0.09509355574846268, 0.04327258840203285, 0.015829816460609436, -0.10200425982475281, -0.13320612907409668, -0.04209090769290924, -0.33782023191452026, 0.12266062945127487, -0.23911426961421967, 0.3424709141254425, 0.03775625675916672, 0.2343904674053192, -0.21291418373584747, -0.047818467020988464, 0.10071496665477753, 0.013070356100797653, -0.05939429998397827, -0.23930616676807404, -0.21307916939258575, -0.28963589668273926, 0.04408840462565422, 0.3154747188091278, 0.09206889569759369, 0.24068818986415863, 0.18017207086086273, 0.04903768002986908, 0.09865299612283707, -0.2168678194284439, -0.3707517981529236, 0.29173654317855835, 0.298674076795578, 0.011760193854570389, -0.1482374519109726, 0.20188628137111664, -0.11515231430530548, -0.2718844711780548, -0.24626345932483673, 0.11543486267328262, 0.3290413022041321, 0.2862357497215271, 0.16962777078151703, -0.08994138240814209, 0.26272445917129517, -0.36885109543800354, -0.4549790620803833, 0.3068516254425049, -0.502817690372467, -0.13924728333950043, -0.15837742388248444, 0.18461932241916656, 0.004488546866923571, 0.11082446575164795, 0.0979485884308815, -0.09172483533620834, 0.0712248906493187, 0.15738320350646973, 0.12694098055362701, -0.37164783477783203, 0.0564437210559845, 0.08120888471603394, -0.21335278451442719, -0.11622419208288193, -0.09061526507139206, -0.16584868729114532, -0.34530895948410034, 0.13915587961673737, -0.07936067134141922, 0.33149269223213196, 0.0327816866338253, -0.19361601769924164, 0.28357627987861633, -0.3672679364681244, 0.3155524730682373, -0.11475864052772522, 0.08638428151607513, -0.16600413620471954, -0.305438369512558, -0.002075880765914917, 0.026098966598510742, -0.00348972762003541, 0.35012245178222656, 0.09887254983186722, -0.1725563108921051, -0.11506345123052597, 0.19449318945407867, -0.06800527125597, -0.1380765587091446, -0.1570952832698822, -0.07119020819664001, 0.21438604593276978, 0.30697232484817505, -0.08673233538866043, 0.0038646250031888485, -0.23837044835090637, 0.10818975418806076, 0.20014511048793793, -0.01449380349367857, 0.126796692609787, -0.15875311195850372, -0.17619283497333527, -0.33418530225753784, 0.01880207285284996, -0.4389200210571289, -0.1401221752166748, 0.06250842660665512, 0.11919546127319336, 0.035741016268730164, 0.10131123661994934, -0.32680565118789673, 0.28758618235588074, -0.02220959961414337, 0.13175709545612335, -0.16819095611572266, -0.06625591218471527, 0.07502235472202301, -0.021610328927636147, 0.03073304146528244, -0.19238148629665375, -0.4384055435657501, -0.2013474702835083, -0.10907953232526779, 0.17396649718284607, 0.3034045100212097, -0.4270305335521698, 0.05463114753365517, 0.525706946849823, -0.0775504931807518, -0.10020095109939575, -0.3809848129749298, 0.11982700228691101, -0.3905273675918579, -0.33793994784355164, -0.39592674374580383, -0.03497986122965813, 0.2844351828098297, -0.40775322914123535, -0.2642906904220581, -0.003283389378339052, 0.19071531295776367, -0.10957939177751541, 0.07474865764379501, -0.054319873452186584, -0.06843502074480057, 0.23559845983982086, -0.12270253896713257, -0.15285499393939972, -0.2674953043460846, -0.3358010947704315, -0.22024552524089813, -0.036773886531591415, -0.00044451773283071816, -0.11979120969772339, -0.1961446851491928, -0.03381418064236641, -0.18025843799114227, -0.0700840950012207, -0.07381623238325119, 0.03706774860620499, -0.16186973452568054, 0.07481120526790619, -0.04745526984333992, -0.03323487564921379, -0.13528428971767426, 0.19030170142650604, 0.18719325959682465, 0.1342322677373886, -0.2781750559806824, -0.323911190032959, -0.29766345024108887, -0.47628286480903625, 0.1504526436328888, -0.032533761113882065, 0.21089981496334076, 0.05413428694009781, -0.25189438462257385, 0.23357565701007843, -0.08701705932617188, -0.003780537284910679, -0.035410113632678986, 0.0910860225558281, 0.11497938632965088, 0.11094622313976288, 0.039084404706954956, -0.284638911485672, -0.1712690144777298, -0.05665387213230133, 0.049201659858226776, 0.058519959449768066, -0.24737772345542908, 0.1714317947626114, 0.11882567405700684, -0.025527559220790863, -0.4203455150127411, 0.04926839470863342, -0.19516605138778687, 0.03527650237083435, -0.2981264293193817, -0.26351553201675415, 0.1585720330476761, 0.1583191305398941, 0.12744924426078796, 0.0029950877651572227, -0.21636547148227692, 0.04425061121582985, 0.05603174865245819, -0.2988019585609436, 0.4827686548233032, 0.3220449984073639, -0.06373365223407745, 0.12649258971214294, 0.09135947376489639, -0.14008259773254395, 0.025975171476602554, -0.09797964990139008, 0.3453277349472046, -0.12834477424621582, -0.21134421229362488, 0.1286088526248932, -0.04628526419401169, -0.002192279091104865, 0.1171548068523407, -0.031603459268808365, 0.20325200259685516, -0.0404687225818634, 0.20410791039466858, 0.06728855520486832, -0.05761094391345978, -0.2212439477443695, -0.11455202847719193, -0.2222546637058258, 0.09209339320659637, 0.27589234709739685, -0.0745290070772171, 0.04691764712333679, -0.0858779028058052, -0.06983327120542526, 0.3364766538143158, -0.41971156001091003, -0.057234518229961395, 0.40370088815689087, -0.03133572265505791, -0.16505879163742065, -0.02605394273996353, -0.36282944679260254, -0.02309275232255459, -0.30089470744132996, -0.02259928174316883, 0.097804956138134, 0.1168425902724266, 0.1465100646018982, -0.03966366499662399, 0.13952893018722534, 0.0011244876077398658, -0.19062303006649017, -0.12409955263137817, -0.035778436809778214, 0.049234893172979355, -0.10240228474140167, 0.182623490691185, 0.1073274239897728, -0.36694222688674927, 0.16117165982723236, -0.05010107532143593, 0.037705257534980774, -0.03131873160600662, 0.1985059678554535, -0.16515281796455383, 0.23739147186279297, 0.0251613799482584, -0.17665880918502808, -0.38070541620254517, -0.08812081068754196, 0.10115639120340347, 0.12556540966033936, -0.36025235056877136, -0.0797332227230072, 0.11494477093219757, 0.01825365237891674, -0.1726091206073761, 0.07252279669046402, 0.1632365584373474, -0.11279983818531036, -0.3034326136112213, -0.02923700399696827, -0.0562349334359169, 0.2879940867424011, -0.14016082882881165, -0.05218800529837608, 0.2989487051963806, 0.06496702879667282, 0.2879343032836914, -0.11100073903799057, 0.2607089579105377, -0.16638147830963135, -0.09400805085897446, -0.06975991278886795, -0.2918916344642639, -0.06549029797315598, -0.0929386094212532, 0.059128306806087494, -0.023615524172782898, 0.10892840474843979, 0.13522125780582428, 0.26419422030448914, 0.032894715666770935, 0.18926240503787994, 0.06525184959173203, -0.025120172649621964, 0.23289813101291656, -0.22078575193881989, 0.32309409976005554, -0.21629057824611664, -0.1352023482322693, -0.2435893416404724, -0.102350614964962, 0.18973572552204132, 0.16618439555168152, -0.2970817983150482, -0.06447380781173706, -0.04854532331228256, -0.07583954930305481, 0.0393986701965332, 0.08511238545179367, -0.09103462100028992, -0.1889512985944748, 0.21312034130096436, -0.04289383068680763, -0.012135583907365799, 0.13620619475841522, -0.03625069186091423, 0.04836922511458397, -0.23566527664661407, -0.11226918548345566, 0.05707382410764694, -0.06493519246578217, 0.25631046295166016, -0.01707523688673973, 0.0006647800328209996, -0.15172021090984344, 0.10803820937871933, 0.10061206668615341, 0.02747342362999916, -0.0011655597481876612, -0.012613884173333645, 0.12866488099098206, 0.2547048330307007, 0.016683094203472137, 0.08633783459663391, 0.17095163464546204, 0.02164383791387081, -0.00829282682389021, 0.23113380372524261, -0.04891742393374443, -0.20987451076507568, -0.021943647414445877, 0.23551790416240692, 0.016486207023262978, 0.2908436059951782, 0.11410676687955856, 0.2046932727098465, -0.13490691781044006, -0.09921711683273315, -0.249294251203537, -0.03428613394498825, 0.0998176783323288, 0.004510805476456881, 0.32194283604621887, -0.23395882546901703, -0.12832023203372955, -0.03370419889688492, 0.0662214532494545, 0.02505643293261528, -0.22843527793884277, -0.08177517354488373, -0.24063682556152344, 0.1345399022102356, 0.08317174762487411, 0.19998164474964142, 0.22848014533519745, 0.22135315835475922, 0.04672107473015785, -0.010660544969141483, 0.1817091703414917, -0.055991578847169876, -0.0036324646789580584, 0.14420853555202484, 0.168785959482193, -0.027131212875247, 0.07640480250120163, 0.23037447035312653, 0.05663200095295906, 0.09209970384836197, 0.06687545031309128, -0.21149615943431854, 0.12635284662246704, -0.0267297625541687, 0.08413445949554443, 0.08078103512525558, 0.011879627592861652, 0.07318349182605743, 0.08441805839538574, 0.08239617198705673, -0.024007882922887802, -0.08224230259656906, -0.15087497234344482, -0.2811407744884491, -0.08147245645523071, -0.22512029111385345, -0.08478496223688126, 0.0005721825873479247, -0.28731852769851685, 0.048197124153375626, 0.26645904779434204, -0.3347865045070648, -0.2482987642288208, 0.1699373871088028, -0.24244509637355804, -0.19181272387504578, 0.009095657616853714, 0.2087024450302124, 0.24410013854503632, -0.007195109035819769, -0.34039050340652466, 0.14475342631340027, 0.018396353349089622, 0.019507315009832382, -0.34603196382522583, -0.014098686166107655, 0.08910192549228668, -0.057647306472063065, 0.15700821578502655, 0.2543083429336548, -0.10689684003591537, 0.03219248726963997, -0.20726455748081207, 0.07660605013370514, -0.1430346667766571, -0.18047332763671875, -0.07652165740728378, -0.20469006896018982, 0.2993869185447693, -0.009417188353836536, 0.046687085181474686, 0.09077252447605133, -0.12456141412258148, -0.08465727418661118, -0.08804107457399368, -0.10483790189027786, -0.011208873242139816, -0.05505962297320366, 0.04204237088561058, 0.057259734719991684, -0.26995813846588135, 0.18055687844753265, -0.086888886988163, -0.13337717950344086, -0.05319586396217346, 0.18358610570430756, -0.04319927841424942, 0.09565206617116928, 0.09418723732233047, 0.0352899543941021, -0.044570647180080414, 0.2516650855541229, -0.01228577084839344, -0.11876209080219269, 0.09465967863798141, 0.19624723494052887, 0.15442058444023132, -0.02785486914217472, 0.18939825892448425, -0.06356577575206757, -0.07216276228427887, -0.10091158747673035, -0.007473481819033623, -0.3152696490287781, 0.0661371573805809, -0.20062384009361267, 0.13100546598434448, -0.024126296862959862, -0.22547152638435364, -0.3219606280326843, -0.035957545042037964, -0.06912827491760254, 0.160637766122818, 0.23840951919555664, -0.19897037744522095, -0.11613716185092926, -0.1373339295387268, -0.2816622853279114, -0.05072254687547684, -0.17154645919799805, 0.18490353226661682, -0.13728508353233337, -0.032199639827013016, 0.21171338856220245, 0.061059363186359406, -0.04819653183221817, -0.08325681835412979, -0.07515986263751984, -0.040851518511772156, 0.1942739486694336, -0.11182139813899994, 0.14464399218559265, 0.20728597044944763, 0.3041447401046753, -0.05730228126049042, 0.1885208934545517, 0.1733119934797287, 0.03845306858420372, -0.15171267092227936, 0.0292245801538229, -0.1277584433555603, -0.15588128566741943, 0.36139535903930664, -0.194113627076149, -0.14488475024700165, -0.06259149312973022, -0.12204880267381668, 0.07023650407791138, -0.26126208901405334, 0.22734254598617554, 0.11004236340522766, -0.08896639198064804, 0.1382349133491516, -0.07473067939281464, 0.21066807210445404, -0.0760895386338234, 0.05275459960103035, -0.1455521136522293, -0.057083696126937866, -0.03328152000904083, -0.16856786608695984, 0.2414821833372116, -0.21015220880508423, -0.09558621048927307, -0.08101576566696167, 0.11999250203371048, -0.29883822798728943, -0.3084368109703064, -0.14105144143104553, -0.08114144206047058, 0.050001949071884155, 0.07959023863077164, 0.003069465048611164, -0.24602161347866058, -0.15835697948932648, 0.08688695728778839, -0.06917238235473633, 0.0576702356338501, -0.030013473704457283, 0.20708586275577545, -0.04594418406486511, 0.08715133368968964, -0.006240366958081722, 0.03571004420518875, -0.2822975218296051, -0.17122933268547058, -0.27932149171829224, 0.272428035736084, -0.00590889947488904, 0.0475328154861927, 0.19016370177268982, 0.15267129242420197, -0.30070772767066956, -0.1846339851617813, -0.03924109786748886, -0.15518797934055328, -0.06705252826213837, 0.03122594580054283, -0.16552890837192535, -0.33905458450317383, -0.2008349746465683, -0.20214278995990753, -0.2141040861606598, 0.2891446650028229, -0.3176424503326416, 0.046471964567899704, 0.16237002611160278, -0.21512889862060547, 0.09382117539644241, -0.004163573030382395, -0.25488921999931335, 0.10401593148708344, -0.17087478935718536, 0.21967856585979462, -0.06923221796751022, 0.14877180755138397, -0.3764728605747223, 0.06216353550553322, 0.09316743165254593, 0.03710971400141716, -0.047028593719005585, -0.2594199776649475, -0.10536651313304901, -0.03514507785439491, 0.021807201206684113, 0.13284699618816376, 0.0175604447722435, 0.1565079689025879, 0.273647665977478, 0.1229642853140831, 0.13746215403079987, -0.29754164814949036, -0.13643726706504822, 0.36008697748184204, 0.11001698672771454, -0.06292761862277985, 0.019238200038671494, 0.12607841193675995, -0.28181931376457214, -0.23562106490135193, -0.2530425786972046, 0.17705266177654266, 0.34802141785621643, 0.087250255048275, -0.033064667135477066, -0.3486199378967285, 0.1780628114938736, -0.3610939085483551, -0.5177332758903503, 0.1129358559846878, -0.3291347920894623, 0.10519382357597351, -0.19995790719985962, 0.22650401294231415, -0.09410056471824646, 0.06650979816913605, -0.03480827435851097, -0.07901234179735184, 0.0303957499563694, 0.0623469315469265, 0.16271667182445526, -0.25754809379577637, -0.1144447922706604, -0.010659139603376389, -0.12011571228504181, -0.045190177857875824, -0.09776739776134491, -0.03638765215873718, -0.2596101462841034, 0.2607055604457855, 0.0819481611251831, 0.2333175539970398, -0.18281538784503937, -0.34701862931251526, 0.30449628829956055, -0.21639679372310638, 0.21868076920509338, -0.10880351066589355, 0.04818757623434067, -0.22532624006271362, -0.05630097538232803, -0.099004365503788, -0.06347820162773132, -0.09814059734344482, 0.3983224928379059, -0.011161758564412594, 0.07346932590007782, -0.08330035209655762, 0.25043851137161255, 0.16582751274108887, -0.2479313313961029, -0.2438991516828537, -0.0638948306441307, 0.25411275029182434, 0.1575002819299698, 0.021870331838726997, -0.10847847163677216, -0.11978249251842499, 0.00449323607608676, 0.16460777819156647, 0.11195401102304459, 0.11545662581920624, -0.2560344934463501, -0.09325344115495682, -0.30536356568336487, -0.23810961842536926, -0.3546306788921356, -0.09048129618167877, -0.11372365802526474, 0.016227014362812042, 0.02104666270315647, -0.03142145648598671, -0.08464988321065903, 0.21011026203632355, -0.10435464233160019, -0.03011878952383995, -0.13140054047107697, -0.10192757099866867, 0.24993515014648438, 0.1222730353474617, 0.07624969631433487, -0.16710813343524933, -0.4667733311653137, -0.16617301106452942, -0.1671241968870163, 0.0200854130089283, 0.16226987540721893, -0.3333967626094818, -0.11707761138677597, 0.24142028391361237, -0.15375623106956482, -0.00030163544579409063, -0.19051231443881989, 0.18433727324008942, -0.46321460604667664, -0.12025012820959091, -0.19605807960033417, -0.03725529462099075, 0.04158329963684082, -0.16338884830474854, -0.06773658096790314, -0.022618699818849564, 0.3364761769771576, -0.07114801555871964, -0.03621964156627655, 0.06066815182566643, -0.02174384891986847, 0.17923504114151, -0.19894331693649292, -0.07217949628829956, -0.2566079795360565, -0.3108850419521332, -0.3648826479911804, -0.17387622594833374, 0.2157530039548874, -0.2598819136619568, -0.06280013918876648, -0.07010538130998611, -0.24133126437664032, 0.017777297645807266, -0.18807318806648254, 0.02316596917808056, -0.2539002597332001, 0.15013425052165985, -0.10215723514556885, -0.010382655076682568, 0.07601331174373627, 0.06321170181035995, 0.07198375463485718, -0.10337720811367035, -0.4215591251850128, -0.3330822288990021, -0.32934173941612244, -0.31427812576293945, 0.16825681924819946, -0.22514398396015167, 0.20464548468589783, -0.1019788458943367, -0.19232964515686035, 0.12237951904535294, -0.2316019982099533, 0.27736717462539673, -0.12956413626670837, -0.11013943701982498, 0.31195610761642456, 0.19662931561470032, 0.08240426331758499, -0.2403823584318161, 0.07559221982955933, -0.018054652959108353, 0.050203438848257065, 0.052790943533182144, -0.03066418506205082, 0.1286296248435974, 0.19513702392578125, -0.06479422003030777, -0.37863603234291077, -0.06191468983888626, -0.17237859964370728, -0.029162105172872543, -0.24479253590106964, -0.11830630898475647, 0.15413056313991547, 0.31740376353263855, 0.0966503694653511, -0.10297999531030655, 0.056266818195581436, -0.015034062787890434, 0.14368568360805511, -0.07018113136291504, 0.39203763008117676, 0.38131967186927795, 0.07181873917579651, 0.22209443151950836, -0.09601955115795135, 0.0598478727042675, 0.010132577270269394, -0.2094225287437439, 0.37725985050201416, -0.16026902198791504, -0.08590523898601532, 0.08293648809194565, 0.06913869827985764, 0.1254408061504364, -0.17798805236816406, -0.13829927146434784, -0.07395197451114655, 0.020749704912304878, 0.08753608167171478, 0.0690205916762352, -0.06670131534337997, -0.26956576108932495, -0.030150890350341797, -0.08443552255630493, 0.025561757385730743, 0.12379559129476547, -0.2016851156949997, -0.15035872161388397, -0.10804902017116547, -0.0296753142029047, 0.22145578265190125, -0.3653504252433777, -0.017896268516778946, 0.15474553406238556, -0.10220366716384888, -0.21265044808387756, -0.02821934036910534, -0.14063294231891632, 0.1114477664232254, -0.17827604711055756, -0.013661641627550125, -0.024673035368323326, 0.09981854259967804, 0.3054550588130951, -0.0772918164730072, 0.13740715384483337, -0.029673615470528603, -0.055661484599113464, -0.009266074746847153, 0.04408290237188339, -0.1390094757080078, 0.098967544734478, 0.11234632879495621, 0.20461998879909515, -0.33856165409088135, 0.057243071496486664, -0.3123493194580078, -0.12611009180545807, 0.11898251622915268, 0.13173891603946686, -0.008581127040088177, 0.19018258154392242, -0.05992504581809044, -0.010985910892486572, -0.38964909315109253, -0.012083787471055984, 0.08613508939743042, 0.0910639613866806, -0.3534695506095886, -0.21265137195587158, 0.1836569607257843, 0.05572699010372162, -0.18136203289031982, 0.1906115710735321, 0.08054601401090622, 0.1485011726617813, -0.26253581047058105, 0.10410822182893753, -0.02830572985112667, 0.14132168889045715, -0.14209626615047455, 0.004878722596913576, 0.28168168663978577, -0.1552545428276062, 0.26300787925720215, -0.1110013797879219, 0.14141671359539032, -0.1856313943862915, 0.12001094222068787, 0.09764577448368073, -0.0744285061955452, -0.16478608548641205, -0.0177611093968153, 0.1672143042087555, -0.074582040309906, 0.09139292687177658, 0.2924783527851105, 0.18425185978412628, 0.16195504367351532, 0.052979476749897, 0.30050531029701233, -0.2539196014404297, -0.0339634008705616, -0.13212092220783234, 0.08040555566549301, -0.25654110312461853, -0.04360280558466911, -0.3577684462070465, 0.11356393247842789, 0.29588672518730164, 0.17265763878822327, -0.20935572683811188, -0.06482597440481186, -0.031792618334293365, -0.06237869709730148, -0.013205158524215221, 0.22244657576084137, 0.11420004814863205, 0.00562978396192193, 0.22835223376750946, 0.12362278252840042, -0.13860350847244263, 0.00839600432664156, -0.05189717933535576, -0.04228021577000618, -0.2539861500263214, 0.06941618025302887, -0.07231485843658447, -0.0401914082467556, 0.08068867027759552, 0.05733310803771019, -0.0437433086335659, -0.07930725067853928, 0.09339286386966705, 0.011040515266358852, 0.1054154708981514, 0.11684853583574295, 0.1556715965270996, 0.1471041440963745, 0.17114020884037018, -0.07264182716608047, 0.1204669252038002, 0.08459192514419556, 0.05876315385103226, -0.0730297714471817, 0.2522757947444916, 0.040931336581707, -0.047409556806087494, -0.21847222745418549, 0.12820683419704437, 0.14433592557907104, 0.13271471858024597, 0.0813257247209549, 0.2569975256919861, 0.1477653980255127, -0.15298618376255035, -0.08789268136024475, -0.07720761001110077, 0.1867685168981552, 0.027066191658377647, 0.26838332414627075, -0.2778901159763336, -0.0483134463429451, -0.01233434397727251, -0.05618605017662048, 0.1352243274450302, -0.09619654715061188, -0.009788023307919502, -0.14849607646465302, 0.2868383824825287, -0.1051802709698677, 0.2291799634695053, -0.05461476370692253, 0.06802964210510254, -0.100152887403965, -0.04585946723818779, 0.1318298578262329, 0.0443066731095314, 0.1315339356660843, 0.13282114267349243, 0.07612494379281998, 0.11222456395626068, 0.17346686124801636, 0.21383489668369293, 0.26648014783859253, -0.1037818044424057, -0.08006807416677475, -0.07965251058340073, 0.07011411339044571, -0.05966397002339363, 0.3273259401321411, 0.23917478322982788, 0.18465948104858398, -0.13550609350204468, 0.26985904574394226, -0.12199283391237259, 0.17312857508659363, 0.11074860394001007, -0.04602335765957832, -0.06265808641910553, -0.01506092306226492, -0.2286822646856308, 0.03564164415001869, 0.09221445769071579, -0.2124895453453064, 0.04880968853831291, 0.3608354330062866, -0.3293994963169098, -0.1668318808078766, 0.0760279968380928, -0.014189204201102257, -0.23356439173221588, 0.03309814631938934, 0.12608332931995392, 0.02164730243384838, 0.14435234665870667, -0.2609597146511078, 0.3158830404281616, 0.2025393545627594, 0.10231976211071014, -0.39559200406074524, -0.08511967211961746, 0.037604887038469315, -0.1291658580303192, -0.05650011822581291, 0.04668512940406799, -0.20796334743499756, 0.25026223063468933, -0.19023986160755157, 0.08369705080986023, -0.34717872738838196, -0.33305323123931885, -0.21777041256427765, -0.3224661946296692, 0.273788720369339, 0.14878025650978088, -0.005369646940380335, -0.050023358315229416, -0.14285209774971008, -0.2301962971687317, -0.2262953370809555, 0.05209001898765564, -0.09429704397916794, 0.121612049639225, -0.07833841443061829, 0.030790802091360092, -0.22743642330169678, 0.30618080496788025, -0.11791399121284485, -0.06344074755907059, -0.022132953628897667, 0.16764244437217712, -0.12450798600912094, -0.12770619988441467, 0.2549060881137848, -0.018661532551050186, -0.14640533924102783, 0.1726597100496292, -0.006768906954675913, 0.11073342710733414, 0.15603472292423248, 0.23149751126766205, 0.11216537654399872, -0.023617662489414215, 0.20673315227031708, -0.13976813852787018, -0.1635713428258896, -0.05053200572729111, 0.013825135305523872, -0.40815049409866333, 0.32683393359184265, -0.21050110459327698, 0.13089847564697266, -0.18614934384822845, -0.1719767302274704, -0.37668299674987793, -0.09595242142677307, -0.12915822863578796, 0.14924541115760803, 0.06271395832300186, -0.17954522371292114, -0.039104193449020386, 0.008216345682740211, -0.21750377118587494, -0.2373400181531906, -0.03824806585907936, 0.1767040491104126, -0.17792880535125732, 0.16293786466121674, 0.3054533898830414, 0.08582091331481934, -0.008453273214399815, 0.007161532528698444, -0.06478459388017654, 0.14476841688156128, 0.1451186239719391, -0.17038685083389282, 0.08013586699962616, 0.22237594425678253, 0.2920042872428894, -0.3073451817035675, 0.1375754326581955, 0.11859483271837234, -0.039561375975608826, -0.38153061270713806, 0.18513496220111847, -0.1296943575143814, -0.1702684909105301, 0.0640743151307106, -0.2434905469417572, -0.12700608372688293, -0.2781084477901459, -0.02272222563624382, -0.014721134677529335, -0.2839106619358063, 0.0908135399222374, 0.1266285479068756, 0.09138788282871246, 0.1906559020280838, -0.23513247072696686, 0.285430371761322, 0.11560656130313873, 0.0427028089761734, -0.023748835548758507, 0.028320059180259705, -0.25080904364585876, 0.033315595239400864, 0.23468074202537537, -0.17105840146541595, -0.031501103192567825, -0.040777720510959625, 0.24006487429141998, -0.15539999306201935, -0.1958313286304474, 0.04040800407528877, -0.06871125847101212, 0.1805335432291031, 0.049626853317022324, 0.14262795448303223, 0.06597691029310226, -0.1373746544122696, -0.048226211220026016, -0.05502152070403099, -0.12895911931991577, 0.13240376114845276, 0.251433789730072, 0.02448337897658348, 0.2610488533973694, 0.0737607330083847, -0.2738834619522095, -0.07183851301670074, 0.09479998797178268, -0.16160768270492554, 0.1390935331583023, 0.12435518950223923, 0.04001573100686073, 0.07321836054325104, 0.08145401626825333, -0.09978856891393661, -0.08032366633415222, 0.057487741112709045, -0.11523035168647766, -0.15572145581245422, -0.14831246435642242, -0.21006152033805847, -0.1773221343755722, 0.013733845204114914, -0.06494942307472229, -0.15983939170837402, 0.3895074725151062, -0.39198538661003113, 0.06430503726005554, 0.24432706832885742, -0.09605900198221207, 0.06476690620183945, 0.07559088617563248, -0.3431384861469269, 0.018211835995316505, -0.3051977753639221, 0.20332908630371094, 0.09668134152889252, 0.10208811610937119, -0.14060330390930176, -0.26506558060646057, 0.10560194402933121, 0.0749552845954895, -0.24686042964458466, -0.33885496854782104, -0.15307824313640594, -0.06116427853703499, 0.1289452761411667, 0.2784762978553772, -0.032338947057724, 0.2966880202293396, 0.2457776963710785, -0.03442122042179108, 0.07679030299186707, -0.11281894892454147, -0.3156326115131378, 0.31793874502182007, -0.008520673960447311, -0.03429063782095909, -0.06215118244290352, 0.2353249490261078, -0.25078731775283813, -0.17347972095012665, -0.33519741892814636, 0.17189735174179077, 0.3143511712551117, 0.15685439109802246, 0.07966836541891098, -0.25512197613716125, 0.20919087529182434, -0.23653291165828705, -0.39372724294662476, 0.2520408034324646, -0.18334046006202698, -0.1808832287788391, 0.017971064895391464, 0.1725320667028427, 0.008796353824436665, 0.1306414157152176, 0.13105203211307526, -0.06076417118310928, 0.024205677211284637, 0.3273825943470001, -0.09847430884838104, -0.15779821574687958, -0.08603519946336746, 0.15249353647232056, -0.1963493973016739, -0.20212428271770477, 0.008290604688227177, -0.04673922061920166, -0.11693762987852097, 0.14535565674304962, 0.029767267405986786, 0.24458786845207214, -0.06900323182344437, -0.32000941038131714, 0.30684220790863037, -0.05293954908847809, 0.28377920389175415, -0.05575059726834297, 0.12310715764760971, -0.16971299052238464, -0.3249410390853882, 0.018652061000466347, -0.09202123433351517, -0.03785870596766472, 0.13095521926879883, 0.05934726074337959, -0.14287632703781128, 0.0226987823843956, 0.20013689994812012, 0.19585874676704407, -0.30636492371559143, -0.21367008984088898, 0.02912558987736702, 0.34386584162712097, 0.2751348912715912, -0.05068408325314522, -0.09375407546758652, -0.1849297732114792, -0.06848543882369995, 0.15773160755634308, 0.053874898701906204, 0.07321127504110336, -0.2323743999004364, -0.11084191501140594, -0.07662080228328705, -0.07187552750110626, -0.13968418538570404, 0.024607134982943535, 0.11880271136760712, -0.01634327881038189, -0.15408754348754883, -0.032574787735939026, -0.12604333460330963, 0.28939175605773926, -0.12561579048633575, 0.0007026183302514255, -0.1016378328204155, -0.107589952647686, 0.13386303186416626, -0.06375153362751007, -0.011173050850629807, -0.0930250734090805, -0.360955148935318, -0.03984726592898369, -0.1729808896780014, -0.05900471284985542, 0.24364757537841797, -0.1541900485754013, -0.058834463357925415, 0.37140804529190063, -0.26171883940696716, -0.11111822724342346, -0.36136552691459656, 0.19853796064853668, -0.21309353411197662, -0.2801607549190521, -0.30897802114486694, 0.038843896239995956, 0.2721121311187744, -0.36606448888778687, 0.005121476948261261, -0.08904208987951279, 0.1445527821779251, -0.26922908425331116, 0.0853194072842598, 0.1498016119003296, -0.19898532330989838, 0.020533382892608643, -0.06839937716722488, -0.15465891361236572, -0.1724701225757599, -0.2667295038700104, -0.324895441532135, 0.053847745060920715, 0.1200493723154068, -0.21060040593147278, -0.16186195611953735, -0.17673730850219727, -0.023151447996497154, -0.1351965218782425, -0.0012120134197175503, -0.025159986689686775, -0.1898675113916397, 0.08353777229785919, -0.25913292169570923, -0.11594086140394211, 0.158094123005867, -0.037550751119852066, 0.12147074192762375, -0.009881790727376938, -0.24245060980319977, -0.09292486310005188, -0.05625409632921219, -0.15662617981433868, 0.13164196908473969, -0.07493055611848831, 0.19756659865379333, -0.09365148842334747, 0.007861629128456116, 0.15989597141742706, -0.03456354886293411, 0.1692715585231781, -0.0056357961148023605, -0.1503177434206009, 0.19501131772994995, 0.15128593146800995, -0.04469740390777588, -0.1263832002878189, -0.022808782756328583, -0.1243572011590004, 0.1174328476190567, 0.03320305049419403, -0.2823213040828705, -0.05071812868118286, 0.11999469250440598, -0.2645663917064667, -0.08554431051015854, 0.05403492972254753, -0.2651578187942505, 0.11443380266427994, -0.2663959860801697, 0.021460819989442825, 0.22256602346897125, 0.2922624349594116, 0.27860039472579956, -0.005973032675683498, -0.19058112800121307, 0.0464845709502697, 0.16880835592746735, -0.32936450839042664, 0.35748040676116943, 0.15010076761245728, -0.18907402455806732, 0.24202167987823486, 0.020781852304935455, -0.051911450922489166, 0.0075795031152665615, -0.012368099763989449, 0.3526434004306793, 0.010187116451561451, 0.05034254491329193, 0.026447825133800507, 0.1279175579547882, -0.14333666861057281, 0.07065591216087341, -0.06603892147541046, 0.11533958464860916, 0.08502007275819778, 0.06066169962286949, 0.15313997864723206, 0.16716240346431732, -0.21388867497444153, -0.23864899575710297, -0.2316940873861313, -0.09194912016391754, 0.18548475205898285, -0.15999601781368256, -0.09863480925559998, -0.012402261607348919, -0.04329031705856323, 0.02321278303861618, -0.43242013454437256, -0.05874892696738243, 0.3249722123146057, -0.08575128018856049, -0.13147564232349396, 0.08660022169351578, -0.20299598574638367, 0.21690361201763153, -0.32767564058303833, -0.09993500262498856, 0.10780134797096252, 0.19192016124725342, 0.1877838671207428, -0.0941503718495369, -0.033134035766124725, 0.11905943602323532, -0.060418400913476944, -0.25467178225517273, 0.07372375577688217, -0.1354569047689438, 0.1281857192516327, 0.26845091581344604, 0.06604506075382233, -0.2643125653266907, 0.03669391945004463, -0.21594762802124023, -0.24749788641929626, 0.028279360383749008, 0.04456237331032753, -0.04206087440252304, -0.032013386487960815, 0.10609922558069229, -0.10225170850753784, -0.18718746304512024, -0.04425409808754921, -0.06202339380979538, 0.14297808706760406, -0.1279824823141098, -0.18696512281894684, 0.17947135865688324, -0.05238763988018036, -0.1717061847448349, 0.2925660312175751, 0.08814651519060135, 0.08304119855165482, -0.09607803821563721, 0.15246239304542542, -0.14520208537578583, 0.042900778353214264, -0.21450547873973846, 0.054969724267721176, 0.10567452758550644, -0.15004976093769073, 0.3125317394733429, 0.09576401859521866, 0.2202795296907425, -0.15848499536514282, 0.06404385715723038, 0.09849686920642853, -0.2785413861274719, -0.13240733742713928, -0.007951229810714722, -0.01215048972517252, -0.09483233094215393, -0.0667572095990181, 0.2923201024532318, 0.00024190134718082845, 0.019586296752095222, 0.22054529190063477, 0.26667508482933044, -0.08450545370578766, 0.15654338896274567, -0.14372296631336212, 0.16272373497486115, -0.13074852526187897, -0.04717615619301796, -0.16305804252624512, 0.18752500414848328, 0.19665312767028809, -0.057737454771995544, -0.09560353308916092, -0.08216504752635956, -0.109655000269413, -0.12413248419761658, -0.08786312490701675, 0.21202121675014496, -0.10859315097332001, -0.05374251678586006, 0.18145528435707092, 0.1865316480398178, 0.12023560702800751, 0.1455615907907486, 0.12492930144071579, 0.013776727952063084, -0.11566921323537827, -0.13026855885982513, -0.006289222277700901, 0.017092779278755188, 0.08616030216217041, -0.13030511140823364, -0.06439188122749329, -0.023838751018047333, 0.10584216564893723, -0.16828836500644684, -0.16975243389606476, 0.008990656584501266, 0.1670895516872406, -0.07805858552455902, 0.027259889990091324, 0.010151942260563374, 0.12350202351808548, 0.024251338094472885, -0.018851645290851593, 0.12035394459962845, 0.1423720419406891, -0.09268892556428909, -0.04753702133893967, -0.13359862565994263, 0.03870318457484245, -0.07864011079072952, 0.09091831743717194, -0.013752038590610027, 0.3088279962539673, 0.04283476620912552, -0.23550571501255035, -0.16826492547988892, 0.04623927175998688, 0.19921745359897614, -0.1283019632101059, 0.26759377121925354, -0.14322130382061005, 0.007749105803668499, -0.07809630036354065, 0.1070023849606514, -0.00934299360960722, 0.07976459711790085, -0.12256800383329391, -0.09186945855617523, 0.08906184881925583, 0.1463155746459961, 0.23116052150726318, 0.045023173093795776, 0.30498820543289185, -0.20035693049430847, -0.02407585084438324, -0.03206184133887291, -0.06612499803304672, -0.016494670882821083, -0.10524313151836395, 0.1193981021642685, -0.017512112855911255, 0.13033011555671692, 0.24744513630867004, 0.2127905637025833, 0.07501079142093658, -0.017834635451436043, 0.040294911712408066, -0.011637790128588676, -0.1139136254787445, 0.34362998604774475, 0.41522249579429626, 0.03729598596692085, -0.011276541277766228, 0.2418489158153534, 0.12621526420116425, 0.2599240243434906, 0.09912744909524918, -0.24124354124069214, -0.024499420076608658, 0.11026232689619064, -0.13458062708377838, -0.03101539984345436, -0.17627640068531036, -0.16140183806419373, -0.04074017331004143, 0.32925084233283997, -0.2549660801887512, -0.05620913952589035, 0.21122467517852783, -0.24112848937511444, -0.06935958564281464, -0.14248394966125488, 0.19065922498703003, 0.3183492422103882, -0.009808050468564034, -0.39335009455680847, 0.2531900405883789, 0.2064695507287979, 0.16519832611083984, -0.28778883814811707, -0.26309216022491455, 0.22493481636047363, -0.08956428617238998, 0.13056881725788116, 0.06334467977285385, -0.04125477001070976, 0.13681074976921082, -0.17522989213466644, -0.10114063322544098, -0.39273378252983093, -0.30051305890083313, -0.1906810849905014, -0.2641982138156891, 0.2690500319004059, 0.020269986242055893, 0.05367255583405495, 0.1399507075548172, -0.1415792852640152, -0.1765918731689453, -0.2425214946269989, -0.1353902369737625, -0.14956557750701904, -0.019628453999757767, -0.08412396162748337, -0.16981549561023712, 0.005181799177080393, 0.1526539921760559, -0.13727043569087982, -0.2735826075077057, 0.10502789914608002, -0.08749949187040329, -0.19119778275489807, -0.034304890781641006, 0.006336319260299206, 0.017462730407714844, -0.15330348908901215, 0.11813458800315857, -0.06411293148994446, 0.00573702622205019, -0.00605778768658638, 0.1303883045911789, -0.07950273156166077, -0.24241520464420319, -0.055982984602451324, -0.13001219928264618, -0.18229027092456818, 0.14769373834133148, 0.1549767404794693, -0.4352273941040039, 0.4199691116809845, -0.11042037606239319, -0.08729905635118484, -0.0929761603474617, -0.01987251453101635, -0.35375070571899414, -0.036403410136699677, 0.06877884268760681, 0.024946000427007675, 0.11007038503885269, -0.11379697173833847, 0.1462392956018448, 0.12451682239770889, -0.3510362505912781, -0.21513980627059937, -0.2114807665348053, 0.018092019483447075, -0.1526671051979065, 0.03477545827627182, 0.17547664046287537, 0.022285383194684982, -0.1623757928609848, 0.04200361296534538, -0.025517452508211136, 0.05382965877652168, -0.06555266678333282, -0.25498825311660767, 0.04122849181294441, 0.2668968439102173, 0.4455558955669403, -0.21768078207969666, 0.2247209995985031, 0.11175283044576645, 0.06145712733268738, -0.2809441089630127, 0.2332776039838791, -0.22263705730438232, -0.004093000199645758, 0.35897096991539, -0.30095717310905457, 0.04757852479815483, -0.31427982449531555, -0.2131592482328415, -0.06855188310146332, -0.368689626455307, 0.13456276059150696, 0.03946434706449509, 0.12083038687705994, -0.021300824359059334, -0.09385093301534653, 0.2508084774017334, 0.1866726279258728, 0.20170463621616364, -0.046355437487363815, 0.07329575717449188, -0.13080331683158875, -0.010684643872082233, 0.27633699774742126, 0.0014229586813598871, -0.2681972086429596, 0.14607535302639008, 0.14843033254146576, -0.330167680978775, 0.03190762177109718, -0.1632278710603714, 0.22453010082244873, 0.11537330597639084, 0.18756240606307983, 0.07963158190250397, -0.19223320484161377, 0.008040218614041805, 0.08411907404661179, 0.06822949647903442, 0.05641454830765724, -0.07817625254392624, 0.12846510112285614, -0.18563532829284668, 0.2350633293390274, 0.08527424931526184, -0.3153526484966278, 0.0165956299751997, -0.01450381614267826, -0.3239564001560211, 0.2545146048069, 0.12964464724063873, -0.03827669471502304, 0.24456126987934113, 0.037453290075063705, 0.007920995354652405, -0.07652336359024048, -0.06773727387189865, -0.2671384811401367, -0.12483222782611847, -0.18802158534526825, -0.20880664885044098, -0.1447078436613083, 0.0488513708114624, -0.10435940325260162, 0.07696840167045593, 0.26479458808898926, -0.3892962336540222, -0.03964114561676979, 0.26649388670921326, -0.25570395588874817, 0.14068175852298737, -0.06542780995368958, -0.3360866904258728, 0.015278106555342674, -0.08849703520536423, 0.2129228413105011, 0.011269205249845982, 0.21322372555732727, -0.07677643746137619, -0.2650466859340668, 0.06579598039388657, -0.06933104246854782, -0.10370373725891113, -0.4004741907119751, -0.04110320657491684, 0.01425043772906065, 0.024309104308485985, 0.2217768281698227, -0.10827730596065521, 0.2479754239320755, 0.05965080484747887, -0.019373979419469833, 0.07854339480400085, -0.03163130208849907, -0.2681336998939514, 0.16093814373016357, 0.2275329977273941, 0.1592360883951187, 0.09903476387262344, 0.1719954013824463, -0.14108185470104218, -0.2293766587972641, -0.30743607878685, 0.2022949606180191, 0.04419812187552452, 0.07354004681110382, 0.05568297952413559, -0.18099525570869446, -0.0005042893462814391, -0.30501309037208557, -0.3978192210197449, 0.10030296444892883, -0.43084728717803955, 0.033924929797649384, 0.06986026465892792, 0.18000513315200806, -0.016600534319877625, 0.23394766449928284, 0.05161767452955246, -0.08671077340841293, 0.1910565197467804, 0.035710446536540985, 0.15960633754730225, -0.13191042840480804, 0.015985684469342232, 0.11573676019906998, -0.008432304486632347, -0.05779264122247696, -0.24082143604755402, -0.1477152556180954, -0.29144901037216187, 0.11967188864946365, 0.10646801441907883, -0.020504172891378403, -0.18457359075546265, -0.2733323276042938, -0.017654212191700935, -0.1937936395406723, 0.24026602506637573, 0.0044028982520103455, 0.2109299898147583, -0.07094523310661316, -0.2889450192451477, -0.153625950217247, -0.006336776539683342, -0.2201361209154129, 0.2812618017196655, -0.029056357219815254, -0.12139765918254852, -0.15842635929584503, 0.05229916423559189, 0.006298824213445187, -0.2939562201499939, -0.09809482842683792, -0.0775131806731224, 0.1408720463514328, 0.1630220115184784, -0.18698787689208984, -0.22729307413101196, -0.1611117273569107, -0.05511874333024025, 0.17022664844989777, 0.20720691978931427, -0.015938708558678627, -0.0020139175467193127, -0.17771603167057037, -0.3162168562412262, 0.029227545484900475, -0.06149881333112717, -0.18479272723197937, 0.0762874111533165, -0.07206051051616669, 0.07635082304477692, 0.06218518689274788, -0.23468434810638428, 0.1552458256483078, 0.05619174614548683, 0.0292550977319479, 0.018237514421343803, 0.0074409302324056625, 0.07888228446245193, 0.001276893774047494, -0.15304924547672272, 0.11813856661319733, -0.10892478376626968, 0.03318769112229347, -0.09957452118396759, -0.043186187744140625, 0.11352914571762085, -0.31325194239616394, -0.12002452462911606, 0.3539930582046509, -0.20945130288600922, -0.11145927757024765, -0.24340848624706268, -0.021678753197193146, -0.25932756066322327, -0.1151876449584961, -0.09748814254999161, 0.11259137094020844, 0.02553551271557808, -0.28003937005996704, -0.1710730791091919, 0.016615038737654686, 0.2032812088727951, -0.20726732909679413, 0.014431746676564217, 0.04042014479637146, -0.1711074858903885, 0.11664653569459915, -0.035140782594680786, 0.11241907626390457, -0.06478284299373627, -0.18647167086601257, -0.1502516120672226, 0.012473089620471, 0.20955230295658112, -0.11245705932378769, -0.08943741023540497, -0.3209671676158905, -0.21617935597896576, 0.02926422655582428, -0.14371728897094727, 0.21008585393428802, -0.3342565894126892, 0.13970515131950378, -0.22869406640529633, -0.15861833095550537, 0.04818651080131531, -0.0861922949552536, 0.2730516791343689, -0.03229386731982231, -0.3797600567340851, -0.20784620940685272, -0.28577423095703125, -0.12517830729484558, -0.05698622018098831, -0.05388540402054787, 0.13822409510612488, -0.05021835118532181, 0.04681655764579773, 0.2018863558769226, 0.007932419888675213, -0.02985154092311859, -0.035618118941783905, -0.14016707241535187, 0.29844844341278076, -0.08870474249124527, -0.1881515234708786, -0.16588257253170013, -0.16454701125621796, -0.11840793490409851, -0.0814589112997055, 0.14633092284202576, -0.021912386640906334, -0.005476077552884817, 0.013144347816705704, -0.13623873889446259, -0.12328793108463287, 0.14008481800556183, -0.04239267855882645, -0.030906157568097115, -0.08241202682256699, 0.00594992283731699, -0.010711917653679848, 0.3294312357902527, -0.03271612152457237, 0.18089476227760315, -0.2078252136707306, 0.2547590136528015, 0.07469505071640015, -0.008069084025919437, 0.32824698090553284, 0.142984539270401, -0.027996428310871124, 0.15392115712165833, 0.10844490677118301, -0.1684829145669937, -0.1971718817949295, -0.0030452481005340815, 0.08210615068674088, 0.21975460648536682, 0.10887142270803452, -0.09152320772409439, 0.110586017370224, 0.06152651086449623, -0.018346283584833145, 0.135065957903862, 0.07215621322393417, 0.19135171175003052, 0.0834355354309082, 0.09897951781749725, -0.06660325080156326, 0.12375328689813614, -0.006960062775760889, -0.09372130781412125, -0.01951727643609047, 0.25331127643585205, -0.0012982480693608522, 0.04957222566008568, -0.15995751321315765, 0.10492157936096191, 0.1659204512834549, -0.3409744203090668, 0.17951884865760803, 0.28444021940231323, 0.061539407819509506, -0.04630425199866295, -0.018585849553346634, -0.2540074586868286, 0.00922967679798603, -0.13659068942070007, 0.1459541916847229, -0.0031525930389761925, 0.046087078750133514, 0.18474498391151428, 0.0018642391078174114, 0.10693149268627167, -0.05219608545303345, -0.06433217227458954, 0.04184235632419586, 0.10432137548923492, -0.1276635080575943, 0.21034860610961914, -0.18666084110736847, -0.07564518600702286, -0.0051544709131121635, 0.09601900726556778, -0.19395066797733307, -0.07351367175579071, 0.12212475389242172, 0.01646409183740616, -0.16903215646743774, -0.12897373735904694, 0.1279836893081665, -0.12386279553174973, -0.22292059659957886, -0.0740789994597435, -0.35245880484580994, 0.006217014975845814, -0.36071673035621643, -0.1121940165758133, 0.15631736814975739, -0.22620737552642822, -0.18661366403102875, 0.01882537454366684, 0.02547600492835045, -0.061456725001335144, -0.05288765951991081, 0.06119251996278763, 0.05593419447541237, 0.21828140318393707, -0.03447996824979782, 0.007264459505677223, 0.29345837235450745, 0.12462667375802994, 0.33194586634635925, -0.18338359892368317, 0.22836428880691528, -0.1778751015663147, 0.01596839353442192, 0.11527106910943985, -0.19460543990135193, -0.02882974222302437, -0.11539003998041153, 0.12002979218959808, 0.027904096990823746, -0.10453736782073975, 0.1446281224489212, 0.19426564872264862, 0.14952842891216278, 0.05201013386249542, 0.11255868524312973, -0.07853005826473236, -0.06411794573068619, -0.10818326473236084, 0.1303519606590271, -0.02084193378686905, -0.1403931975364685, -0.2873600721359253, 0.20112811028957367, 0.2914246618747711, 0.011663098819553852, -0.14667198061943054, -0.166216641664505, -0.04195644333958626, -0.007955916225910187, -0.16145722568035126, -0.010926998220384121, -0.11852224171161652, -0.14627261459827423, 0.22971291840076447, -0.2848633825778961, 0.047624457627534866, 0.08354900777339935, -0.1523522585630417, 0.1305389404296875, -0.010658960789442062, -0.12663710117340088, -0.11923370510339737, 0.09690794348716736, 0.1645396202802658, 0.03483103588223457, -0.15299886465072632, 0.1104891374707222, 0.12090344727039337, -0.1024990975856781, -0.09315013885498047, -0.019865689799189568, -0.10621336102485657, -0.08527076244354248, 0.23512254655361176, -0.11154498159885406, -0.07563211768865585, 0.05755485221743584, 0.1727018654346466, -0.030837446451187134, 0.23456741869449615, -0.0059701260179281235, -0.1650754064321518, -0.1314738392829895, 0.0980847030878067, 0.01490289531648159, 0.16390404105186462, -0.08760181814432144, 0.21523283421993256, 0.00018582701159175485, 0.12368651479482651, 0.08151259273290634, 0.03185199573636055, 0.20660442113876343, 0.059092458337545395, 0.012690660543739796, -0.11133404821157455, -0.2193210870027542, -0.2936963140964508, 0.0686117485165596, 0.19169776141643524, -0.009391597472131252, -0.2699578106403351, 0.05164148658514023, 0.17602895200252533, 0.10629159957170486, -0.09817484766244888, -0.15595953166484833, -0.11384592950344086, 0.017032237723469734, -0.06485214829444885, 0.1400602012872696, 0.19499146938323975, -0.01899150386452675, -0.11197005957365036, 0.19500532746315002, 0.10130716860294342, -0.053632546216249466, 0.172255277633667, -0.10656005144119263, -0.22542913258075714, -0.11688373982906342, 0.07118245959281921, 0.0756862461566925, 0.09331614524126053, 0.04236074537038803, -0.2211592048406601, -0.1689167022705078, -0.10320651531219482, -0.04516536742448807, -0.010243701748549938, -0.17361868917942047, 0.1563188135623932, -0.10332529246807098, -0.03685462474822998, -0.14789780974388123, -0.036237116903066635, -0.03068331442773342, -0.17633885145187378, -0.13209210336208344, -0.2441582828760147, -0.008979931473731995, -0.09232796728610992, -0.17066317796707153, -0.08662106096744537, 0.2029091864824295, -0.05908099561929703, 0.05275266245007515, -0.06717926263809204, 0.08459524065256119, 0.03551502525806427, -0.22837495803833008, 0.021108493208885193, -0.09715171158313751, 0.20714786648750305, 0.07860870659351349, 0.0065753222443163395, -0.013408860191702843, 0.048505328595638275, -0.03675059974193573, -0.15277588367462158, 0.11989633738994598, -0.02181771956384182, -0.10606160014867783, 0.05207780376076698, 0.03583274036645889, -0.07610616832971573, 0.04934518039226532, 0.09588226675987244, 0.12148435413837433, -0.03102804347872734, 0.05089540034532547, 0.10439512133598328, -0.12856358289718628, 0.02132958546280861, -0.22221945226192474, 0.03946772962808609, 0.052718985825777054, -0.15139003098011017, 0.060785382986068726, -0.10785937309265137, -0.16784466803073883, -0.060959286987781525, -0.0773080512881279, -0.21198387444019318, -0.08503326773643494, -0.031940996646881104, -0.1347675621509552, -0.1257205456495285, 0.2214938998222351, 0.05211937054991722, -0.07007643580436707, -0.27845069766044617, -0.09228039532899857, -0.043064896017313004, 0.03781679645180702, 0.19849327206611633, -0.15254688262939453, 0.018776044249534607, 0.11411839723587036, 0.12716524302959442, 0.002676580334082246, -0.05305706337094307, -0.04718112200498581, 0.11438033729791641, 0.07803735136985779, 0.0950191542506218, -0.1307969093322754, 0.009931548498570919, 0.03538854047656059, -0.06908728182315826, 0.12176397442817688, -0.09350892901420593, -0.17620155215263367, 0.07586093246936798, -0.17430543899536133, -0.01365949772298336, 0.09584498405456543, -0.06482439488172531, -0.10193668305873871, -0.13489200174808502, 0.004755691159516573, -0.16952092945575714, 0.07910731434822083, 0.08706597238779068, -0.02992945723235607, -0.21660830080509186, -0.07180754840373993, 0.12384465336799622, -0.06302299350500107, -0.03562847897410393, -0.08788726478815079, -0.019865192472934723, 0.040948763489723206, 0.17770551145076752, 0.016152022406458855, -0.03456098213791847, -0.07122237235307693, -0.0019862561021000147, -0.08759890496730804, -0.14174480736255646, 0.16939884424209595, -0.01637982949614525, 0.10092782974243164, 0.07644924521446228, 0.024011807516217232, -0.19927309453487396, -0.07901815325021744, -0.12869544327259064, -0.020824139937758446, -0.029509631916880608, -0.12509147822856903, 0.07085904479026794, -0.07601769268512726, -0.11742396652698517, -0.19956396520137787, 0.100764699280262, 0.04463190957903862, -0.07875166088342667, -0.16526588797569275, -0.009701547212898731, 0.07652320712804794, 0.00736903864890337, -0.05996286869049072, 0.047966811805963516, 0.021430743858218193, 0.010030248202383518, -0.08570994436740875, -0.25511422753334045, -0.10072571039199829, -0.005488269962370396, 0.20508700609207153, -0.11333247274160385, 0.103606678545475, -0.0022789365611970425, 0.08763474225997925, 0.04331927374005318, 0.0506146103143692, -0.19185879826545715, -0.25900721549987793, -0.10341856628656387, 0.20796866714954376, 0.09060022979974747, -0.16114583611488342, -0.2267085760831833, 0.10008091479539871, -0.17941606044769287, -0.154842808842659, 0.23024575412273407, -0.09203632175922394, -0.05178065598011017, -0.12591393291950226, 0.04172646999359131, 0.12702590227127075, 0.0575239434838295, -0.08249657601118088, 0.09558386355638504, -0.034875594079494476, -0.11552850902080536, 0.1270139068365097, 0.02873600460588932, 0.0079969372600317, 0.08701255172491074, 0.11417750269174576, -0.013534585013985634, -0.18654589354991913, -0.204044908285141, -0.06631861627101898, -0.101658895611763, -0.08170381933450699, 0.16060781478881836, -0.09737935662269592, 0.20683681964874268, -0.15728428959846497, 0.16221345961093903, 0.015136707574129105, -0.02382415160536766, -0.21072793006896973, 0.0661991611123085, 0.05110572278499603, 0.053622372448444366, -0.10274843871593475, -0.10609294474124908, 0.02204221673309803, -0.21777935326099396, -0.17840425670146942, -0.08510784059762955, 0.03245643153786659, 0.19532722234725952, 0.31250256299972534, -0.08431805670261383, 0.07331285625696182, -0.21895018219947815, -0.1872478723526001, 0.06931738555431366, 0.182326078414917, 0.11953169107437134, -0.2122514843940735, 0.12363157421350479, -0.36378052830696106, 0.02772960253059864, 0.04638007655739784, 0.1469353288412094, 0.2309723049402237, 0.21858568489551544, 0.11919349431991577, -0.2614016830921173, -0.3402770459651947, -0.24184934794902802, -0.3196304440498352, -0.1237197294831276, -0.255942702293396, 0.2249061018228531, -0.1326015740633011, 0.2992996275424957, -0.17378386855125427, 0.059158869087696075, -0.036472346633672714, -0.33782586455345154, 0.03706812858581543, 0.07389410585165024, 0.19039377570152283, -0.07969645410776138, 0.05284348875284195, 0.25366824865341187, -0.059555619955062866, -0.05773313716053963, -0.08485079556703568, 0.12957830727100372, -0.3107483386993408, 0.10693090409040451, -0.051669929176568985, -0.021176988258957863, -0.20457255840301514, -0.09422039985656738, 0.06851392984390259, -0.3025240898132324, 0.06512390822172165, -0.10371780395507812, 0.04685715585947037, -0.19446006417274475, -0.06956589221954346, 0.07528040558099747, -0.11672530323266983, -0.012922941707074642, 0.11649122834205627, -0.16461820900440216, 0.012111525051295757, -0.2516958713531494, 0.2382804900407791, -0.0453331433236599, -0.013095847330987453, -0.3151305913925171, 0.08489660918712616, 0.21329817175865173, 0.23802120983600616, -0.10661135613918304, -0.09748465567827225, -0.2431396245956421, 0.03600597009062767, 0.09116893261671066, 0.19001509249210358, 0.01660589873790741, -0.11176998168230057, -0.03917428478598595, -0.03739025443792343, 0.029165804386138916, -0.2009662240743637, 0.06302624940872192, -0.149818554520607, 0.03971109166741371, -0.35512471199035645, -0.1511995494365692, -0.04367120936512947, 0.11436136811971664, 0.06951741874217987, 0.01449134573340416, 0.11335371434688568, 0.24972228705883026, 0.02704763412475586, 0.24933011829853058, -0.05045464262366295, -0.030143333598971367, -0.1975315362215042, -0.07647621631622314, -0.16791082918643951, -0.0704076811671257, -0.12245360016822815, -0.0673346072435379, 0.27686503529548645, 0.32892677187919617, -0.27397680282592773, 0.03470311686396599, -0.389233261346817, 0.009739190340042114, -0.2773277163505554, -0.2984871566295624, -0.29113340377807617, 0.15166012942790985, -0.02177668735384941, -0.10668910294771194, -0.2661987841129303, 0.13381260633468628, 0.2943776249885559, -0.058280475437641144, 0.19238761067390442, -0.0035958667285740376, 0.10162476450204849, -0.025035958737134933, -0.04229681193828583, -0.0741894468665123, 0.04525408893823624, -0.36771726608276367, -0.4381997883319855, -0.2254539132118225, 0.1659986823797226, -0.18568406999111176, -0.14967894554138184, 0.02334052510559559, -0.3333132863044739, 0.01820298843085766, -0.24004928767681122, 0.04595412686467171, -0.31542477011680603, 0.10161762684583664, -0.07169182598590851, -0.23829668760299683, 0.014268094673752785, 0.05744408071041107, -0.00950935110449791, -0.024148648604750633, -0.2258617877960205, -0.12181717902421951, -0.04005737602710724, -0.2081037312746048, 0.14483799040317535, -0.09983322769403458, -0.13400593400001526, 0.23535645008087158, -0.10124058276414871, 0.21490983664989471, -0.09718616306781769, 0.06767171621322632, -0.05502847209572792, -0.027306415140628815, -0.06526922434568405, 0.08624410629272461, -0.11193352937698364, -0.27203235030174255, 0.10621689260005951, -0.04445723071694374, -0.04410368576645851, -0.16947990655899048, -0.24439886212348938, -0.10066632181406021, 0.1271650791168213, 0.05061522126197815, -0.28687700629234314, 0.3583674430847168, 0.09444301575422287, -0.041554372757673264, -0.3125273883342743, -0.05277147889137268, 0.08193821460008621, 0.16394944489002228, 0.09758131206035614, 0.11493038386106491, 0.018971703946590424, 0.22699996829032898, 0.019027676433324814, -0.23910000920295715, 0.1256147027015686, 0.19619442522525787, -0.00554420193657279, -0.09620419144630432, -0.12987010180950165, 0.016677765175700188, 0.09598549455404282, -0.10622307658195496, 0.24803991615772247, 0.20163600146770477, 0.15242990851402283, -0.006290146615356207, 0.06714607030153275, -0.1109854206442833, -0.07932088524103165, 0.11127100139856339, 0.15859606862068176, 0.22876034677028656, -0.0495789609849453, 0.12777674198150635, 0.15808558464050293, 0.044580403715372086, -0.08437082916498184, -0.14151154458522797, -0.06439501792192459, 0.2686665952205658, -0.024042144417762756, 0.061348121613264084, -0.11818421632051468, -0.07705777138471603, 0.2185412049293518, -0.1694285273551941, 0.18209026753902435, 0.029903830960392952, -0.05800861120223999, -0.06325627863407135, -0.0541488416492939, -0.3518127202987671, 0.08636592328548431, -0.11372911930084229, 0.04552694037556648, -0.03859075531363487, 0.13014233112335205, 0.08047875761985779, -0.10077343136072159, 0.2530868947505951, -0.1613348424434662, -0.18668246269226074, -0.17558614909648895, 0.21759644150733948, -0.1031254455447197, 0.023247715085744858, -0.1301218569278717, -0.08519511669874191, -0.04129621013998985, 0.04224853962659836, -0.2423117607831955, 0.034234944730997086, 0.2828177511692047, 0.026562485843896866, -0.15429885685443878, 0.11466479301452637, 0.021334802731871605, -0.02642909064888954, -0.2817904055118561, 0.10143890976905823, -0.25611093640327454, -0.09022306650876999, -0.3397461771965027, -0.08074188232421875, 0.0810258612036705, -0.24622289836406708, -0.15850955247879028, 0.10611476004123688, 0.02361195534467697, 0.10388880968093872, -0.2088135927915573, -0.017072459682822227, 0.04941615089774132, 0.21023458242416382, -0.20330415666103363, 0.20577843487262726, 0.1909686028957367, 0.057123176753520966, 0.11793028563261032, -0.17258131504058838, -0.09305376559495926, 0.06471746414899826, 0.05663922056555748, 0.13072465360164642, -0.04953913390636444, 0.07537813484668732, -0.019839204847812653, 0.0789642482995987, -0.042467664927244186, -0.06789475679397583, -0.0496625117957592, 0.09591566026210785, 0.1446836143732071, 0.049874912947416306, 0.09889152646064758, -0.10538312047719955, -0.06759187579154968, 0.036698173731565475, -0.03537774831056595, -0.1370258629322052, 0.006620793603360653, -0.24653391540050507, 0.08983351290225983, -0.05879415571689606, 0.18448123335838318, -0.21993960440158844, 0.06787433475255966, -0.03895386680960655, -0.1155814528465271, -0.0076261661015450954, 0.18202067911624908, 0.11149661988019943, -0.06957469880580902, -0.023901771754026413, -0.10256093740463257, -0.024477683007717133, 0.05081294849514961, -0.13387148082256317, 0.06330368667840958, -0.13125856220722198, -0.144588902592659, -0.028371522203087807, 0.17920024693012238, 0.24841755628585815, -0.17724013328552246, -0.10631009191274643, -0.09224685281515121, 0.07341381907463074, 0.08420982956886292, -0.1361214965581894, 0.24391262233257294, 0.09794499725103378, 0.06447584927082062, 0.10470744967460632, 0.11314272880554199, -0.021476024761795998, 0.05514947697520256, 0.2841230630874634, 0.13499347865581512, 0.2137206345796585, -0.08745789527893066, -0.26814505457878113, -0.014853078871965408, 0.2015724927186966, 0.0671633780002594, 0.19949744641780853, -0.11729324609041214, 0.2196597158908844, -0.1543031930923462, -0.11971007287502289, 0.08193907141685486, 0.04104820638895035, 0.10810350626707077, -0.024153396487236023, 0.15387055277824402, -0.05922972410917282, -0.22517219185829163, -0.2291523963212967, 0.14651279151439667, 0.14503993093967438, 0.05214066430926323, -0.07432123273611069, -0.03729037940502167, 0.1784583330154419, 0.18571263551712036, -0.050034135580062866, -0.031505387276411057, -0.0770537406206131, -0.10414812713861465, 0.14104348421096802, 0.10706038028001785, 0.047128647565841675, 0.013847585767507553, 0.03685356304049492, 0.06880209594964981, 0.19417917728424072, -0.04750840365886688, 0.2995058000087738, 0.19990558922290802, -0.183345764875412, -0.15002699196338654, 0.03678041696548462, -0.12126164883375168, 0.10350993275642395, 0.08881573379039764, 0.08837352693080902, -0.18541811406612396, -0.0324147492647171, -0.2179429978132248, 0.06081146374344826, 0.030381623655557632, 0.06857815384864807, 0.03247905150055885, -0.043733783066272736, 0.03593903407454491, -0.1754222810268402, 0.12309485673904419, -0.1247706487774849, -0.02393895946443081, -0.11670704931020737, -0.05930411443114281, -0.009066558443009853, -0.17111726105213165, 0.047668397426605225, -0.10198518633842468, -0.021476540714502335, 0.030619299039244652, -0.16885696351528168, -0.16944880783557892, -0.16006770730018616, -0.2020108550786972, -0.12141294777393341, -0.21230849623680115, 0.2923365831375122, -0.05976203456521034, -0.07519861310720444, 0.1586294025182724, 0.0030949630308896303, 0.020829856395721436, -0.06528066843748093, 0.18949294090270996, -0.001896933652460575, -0.09821783751249313, 0.1214643120765686, 0.07139099389314651, -0.020911170169711113, -0.03451543673872948, 0.17328636348247528, 0.09902159124612808, 0.16669921576976776, -0.1437855064868927, 0.013022249564528465, -0.07483124732971191, 0.02019321918487549, -0.09993014484643936, 0.032565172761678696, -0.04255435988306999, -0.23436979949474335, 0.00445964140817523, 0.16856102645397186, 0.05850725248456001, 0.004553569946438074, -0.13563188910484314, 0.025077952072024345, 0.09356164187192917, -0.13957279920578003, 0.08454637974500656, 0.1435072273015976, 0.38933414220809937, -0.22229847311973572, -0.10648404806852341, -0.23359498381614685, 0.001123899593949318, -0.23368270695209503, 0.06065107882022858, 0.0062159588560462, -0.07622852176427841, -0.04032958671450615, -0.010455694980919361, -0.12373913079500198, 0.08019435405731201, 0.12138725817203522, -0.050004251301288605, -0.13886070251464844, 0.3128363788127899, 0.03507865220308304, 0.06819174438714981, 0.10080070048570633, -0.1419496387243271, -0.22232981026172638, 0.005994192790240049, -0.22257676720619202, 0.0071315765380859375, 0.31203749775886536, -0.07117558270692825, -0.10456811636686325, 0.05175896733999252, -0.08677073568105698, -0.019148806110024452, -0.15100862085819244, 0.23926660418510437, -0.21566632390022278, -0.09466155618429184, -0.021580908447504044, -0.0988711342215538, -0.1174531877040863, -0.03815300390124321, -0.1290665715932846, -0.18365079164505005, -0.0198427252471447, -0.12123911827802658, -0.03625866025686264, 0.07313025742769241, 0.0242362879216671, -0.02408069744706154, 0.05837278068065643, -0.1474095582962036, -0.08560638129711151, 0.0877811536192894, -0.126409649848938, 0.05832545831799507, -0.06754712760448456, 0.15508486330509186, -0.2076629102230072, -0.0018223478691652417, -0.26708680391311646, 0.004441562574356794, -0.0030454611405730247, 0.03827653452754021, -0.061162009835243225, 0.08209524303674698, 0.07666704058647156, 0.05607357248663902, -0.15355372428894043, 0.059755660593509674, 0.10779585689306259, 0.2999992072582245, -0.15314146876335144, -0.07587353885173798, 0.011569960042834282, 0.08038529008626938, 0.1326027512550354, 0.15388529002666473, 0.04757966846227646, -0.019699519500136375, -0.009730536490678787, 0.06791602075099945, -0.15311293303966522, 0.1877330243587494, 0.03583693131804466, 0.1223687082529068, -0.09000524133443832, 0.07293284684419632, -0.09408801794052124, -0.11478649824857712, -0.18461216986179352, 0.024753639474511147, -0.2064620703458786, -0.1725432574748993, 0.04836047440767288, 0.25901007652282715, -0.028242232277989388, -0.11001098901033401, -0.15058179199695587, -0.0008787221740931273, -0.13056343793869019, -0.2070779800415039, 0.21836860477924347, 0.0011765712406486273, 0.028417084366083145, -0.04999477416276932, 0.012689429335296154, -0.02063102275133133, -0.16537609696388245, -0.10773666948080063, -0.009741111658513546, -0.06515015661716461, -0.09668039530515671, -0.15184451639652252, 0.1087050512433052, -0.14295195043087006, 0.035047054290771484, 0.046318914741277695, 0.1654517650604248, 0.10447287559509277, -0.04156634211540222, 0.12152253091335297, -0.11378928273916245, 0.16606958210468292, 0.09768681228160858, -0.1910141557455063, 0.10819540172815323, -0.20616847276687622, -0.007039731368422508, 0.18761315941810608, -0.010146542452275753, -0.051128972321748734, -0.11967721581459045, -0.027803106233477592, 0.04191294685006142, 0.07281821221113205, -0.09802525490522385, 0.04373525455594063, -0.08652603626251221, -0.09855593740940094, -0.0565180703997612, -0.101902075111866, 0.00543840741738677, 0.24967636168003082, -0.17797036468982697, 0.2035689353942871, -0.02001476287841797, -0.021184628829360008, -0.015403302386403084, 0.11265186220407486, -0.09741543233394623, -0.20554302632808685, 0.10758086293935776, -0.17863894999027252, -0.2912217080593109, -0.17749957740306854, 0.17156942188739777, 0.26133227348327637, 0.018078504130244255, 0.1577976793050766, -0.1554497629404068, -0.2085028737783432, -0.19744232296943665, -0.3193802237510681, 0.17455525696277618, -0.21468065679073334, 0.16756604611873627, -0.016836784780025482, 0.0788249745965004, 0.0015256451442837715, 0.21655669808387756, -0.07131635397672653, -0.06251857429742813, -0.07196219265460968, 0.03665923699736595, 0.08279691636562347, -0.3093286454677582, 0.08606041967868805, 0.17757472395896912, -0.03652263432741165, -0.07322719693183899, 0.008119153790175915, 0.0430874302983284, -0.34412139654159546, 0.04287082701921463, 0.11303935199975967, 0.03064311295747757, -0.2504201829433441, -0.1631176769733429, 0.08147405833005905, -0.21911942958831787, 0.06799613684415817, -0.0916818231344223, 0.23460230231285095, -0.21256612241268158, -0.09173110127449036, 0.11207761615514755, 0.044708915054798126, -0.0822797566652298, 0.2471425086259842, 0.09674589335918427, 0.10746461898088455, -0.13952387869358063, 0.27485424280166626, 0.1667143702507019, -0.1509513407945633, -0.051634013652801514, 0.15900419652462006, 0.03855206072330475, 0.2729283571243286, -0.08184365183115005, -0.2008495181798935, -0.08759176731109619, 0.018857447430491447, 0.2191031575202942, 0.10087493062019348, -0.02569468691945076, -0.1971500962972641, 0.03237895667552948, -0.2718665599822998, 0.08051422238349915, -0.2398907095193863, 0.01410647016018629, -0.011311707086861134, 0.08166533708572388, -0.2581932842731476, 0.07034763693809509, -0.22341756522655487, 0.3016233444213867, 0.023917367681860924, 0.0320538692176342, 0.19122973084449768, -0.06490828096866608, -0.03695231303572655, 0.07735541462898254, -0.2152930349111557, 0.1758221834897995, -0.2919151484966278, 0.11018318682909012, -0.05966546759009361, -0.06596413999795914, 0.061486538499593735, -0.24094095826148987, 0.07316362112760544, 0.2833290100097656, -0.24449460208415985, -0.1129596084356308, -0.29522985219955444, 0.10906541347503662, -0.22928868234157562, -0.14163684844970703, -0.08237221837043762, -0.007202445529401302, 0.1642315834760666, -0.09583161026239395, -0.2774803340435028, 0.2441795915365219, -0.006732469890266657, -0.018655333667993546, 0.07535316795110703, -0.004373629577457905, 0.12208482623100281, -0.030246613547205925, -0.10870419442653656, -0.08394330739974976, -0.10190343856811523, -0.3573181927204132, -0.17327181994915009, 0.028499986976385117, -0.09792136400938034, -0.20782995223999023, -0.1719476580619812, 0.00409088097512722, -0.01777588203549385, 0.03803461790084839, -0.12395013868808746, -0.029111679643392563, -0.26362210512161255, -0.14737272262573242, -0.028164232149720192, -0.15712764859199524, -0.05274500697851181, 0.1064685508608818, -0.02848025970160961, 0.15164688229560852, -0.2669993042945862, -0.08789222687482834, -0.1469852328300476, 0.054998788982629776, 0.1882174164056778, -0.03879677504301071, -0.011237772181630135, 0.2185860425233841, 0.081590935587883, 0.03932274132966995, 0.06386859714984894, 0.10825280100107193, -0.05424809828400612, -0.12143398076295853, 0.016896294429898262, -0.12566165626049042, 0.0341469906270504, -0.1718854308128357, 0.022164788097143173, -0.175750270485878, -0.15411943197250366, -0.020720256492495537, -0.13967938721179962, -0.18295001983642578, -0.02906232886016369, -0.03770972043275833, -0.05686645582318306, -0.028295548632740974, 0.06179782748222351, 0.035900697112083435, -0.15211041271686554, -0.15743650496006012, -0.09730002284049988, 0.20609837770462036, 0.022705428302288055, 0.19140106439590454, -0.1744149774312973, 0.0017639060970395803, 0.10689064115285873, -0.25018686056137085, -0.03957842290401459, 0.01481863483786583, -0.1511382758617401, 0.019532620906829834, -0.023186611011624336, 0.04935722425580025, -0.09263481199741364, -0.2686116099357605, 0.26685333251953125, 0.06241811811923981, 0.0144928814843297, 0.1291062831878662, 0.201363205909729, -0.07011664658784866, 0.055147718638181686, 0.08122842013835907, 0.18787765502929688, 0.26363930106163025, -0.1331300139427185, 0.1761665940284729, -0.06730160862207413, -0.17225177586078644, -0.002939354395493865, -0.24027438461780548, 0.00949033908545971, 0.1358458250761032, -0.28655698895454407, -0.08042750507593155, 0.07338915765285492, -0.13247092068195343, -0.12180209159851074, -0.22656628489494324, -0.09330819547176361, 0.2676498591899872, 0.05932275950908661, -0.058606211096048355, -0.08075777441263199, -0.3101605176925659, -0.1421681046485901, 0.023153284564614296, 0.18369650840759277, -0.1753254234790802, -0.0069526019506156445, -0.02195415273308754, -0.07332544028759003, 0.23238493502140045, 0.010043112561106682, -0.1492542028427124, -0.0067229378037154675, 0.17794612050056458, -0.11311124265193939, 0.1245381161570549, -0.19679823517799377, 0.017127176746726036, -0.21400855481624603, -0.06687194854021072, -0.22841157019138336, -0.001111192163079977, 0.235697939991951, -0.06541667133569717, 0.05341450870037079, 0.06056928262114525, 0.02669692412018776, 0.040109410881996155, -0.18617309629917145, 0.023236703127622604, -0.26500076055526733, 0.059685394167900085, -0.3109881579875946, -0.12159032374620438, 0.19634154438972473, -0.26675450801849365, 0.03051377274096012, 0.08970687538385391, 0.10641633719205856, 0.2781248092651367, -0.03841474652290344, -0.002919813385233283, -0.20305228233337402, 0.09077374637126923, 0.04652143269777298, -0.03724556788802147, 0.23669981956481934, 0.014421324245631695, 0.025478588417172432, -0.05916772037744522, -0.09833655506372452, -0.140559121966362, -0.03156420215964317, -0.0006916229613125324, -0.15396589040756226, -0.17165008187294006, 0.06187311187386513, -0.025674888864159584, -0.18384304642677307, -0.1274404078722, 0.10318770259618759, 0.12206518650054932, 0.08373025804758072, -0.12181545048952103, 0.22006511688232422, -0.06724803894758224, -0.01658511534333229, -0.11212866753339767, -0.009738055989146233, 0.07326990365982056, 0.13622909784317017, -0.11268413811922073, 0.19275979697704315, 0.031013386324048042, 0.16456323862075806, -0.2933175265789032, 0.08408106118440628, -0.1177348643541336, 0.06593595445156097, -0.1696673184633255, -0.09095155447721481, -0.07259995490312576, -0.009428591467440128, 0.08174657076597214, -0.029139356687664986, 0.1541818380355835, -0.16583357751369476, -0.027681192383170128, 0.16714738309383392, 0.06508029997348785, -0.15197765827178955, 0.01368345320224762, 0.028615644201636314, 0.19967085123062134, -0.09895125031471252, -0.16708169877529144, 0.16178549826145172, -0.06772095710039139, 0.018304158002138138, -0.10691637545824051, 0.1548658013343811, -0.08751916140317917, -0.05951089784502983, 0.16994860768318176, -0.14664410054683685, -0.10872147977352142, 0.11019264906644821, 0.2684290409088135, -0.016832638531923294, 0.0708327367901802, -0.11434471607208252, -0.1850825548171997, -0.03215543180704117, 0.1299360990524292, 0.27318328619003296, 0.09917968511581421, 0.025793712586164474, 0.16012972593307495, -0.009177735075354576, -0.008917124941945076, -0.17741486430168152, -0.08610071986913681, 0.25688600540161133, 0.01792314648628235, -0.03275548666715622, -0.16460305452346802, -0.027812160551548004, -0.24453550577163696, 0.1643057018518448, 0.20488177239894867, 0.24782054126262665, 0.01489993091672659, 0.026102587580680847, 0.07435363531112671, 0.14140194654464722, 0.035986557602882385, -0.1670326292514801, 0.07173968106508255, -0.01828543283045292, -0.02938552387058735, 0.033424824476242065, -0.05572592094540596, 0.049001969397068024, 0.1453527957201004, 0.1523774117231369, 0.07676563411951065, 0.07743816822767258, 0.3090278208255768, 0.11147943884134293, 0.11887343227863312, -0.09126195311546326, 0.13723279535770416, 0.08233381062746048, -0.075108103454113, 0.0018505664775148034, 0.11852685362100601, -0.2338385432958603, 0.17368581891059875, -0.24357539415359497, -0.06678135693073273, -0.05746293067932129, 0.08346346020698547, -0.10956604778766632, -0.016535285860300064, -0.006257047411054373, -0.002627897309139371, -0.09266792237758636, -0.015555180609226227, -0.12773120403289795, -0.22946009039878845, 0.17923904955387115, -0.06406212598085403, 0.028537873178720474, 0.1571962684392929, 0.00025597019703127444, -0.0482059009373188, 0.13885639607906342, 0.03472645580768585, -0.03459510952234268, 0.12822940945625305, -0.05365975946187973, 0.09004255384206772, -0.1384636014699936, 0.42300862073898315, -0.09836408495903015, -0.23234254121780396, 0.3034548759460449, -0.18443726003170013, -0.021800991147756577, -0.08028366416692734, 0.2234945446252823, 0.08297426253557205, -0.12957870960235596, 0.053611885756254196, -0.09366045147180557, -0.07169634848833084, -0.17304548621177673, 0.020624464377760887, 0.15712673962116241, 0.035952161997556686, 0.10973604768514633, 0.0920816957950592, -0.07240907847881317, -0.20098938047885895, 0.07387411594390869, -0.0022930484265089035, -0.16747216880321503, -0.08176614344120026, -0.03695624694228172, 0.22468306124210358, -0.09959333389997482, 0.0988934338092804, -0.18521364033222198, -0.17215774953365326, -0.022747308015823364, 0.09011565148830414, 0.18557114899158478, -0.008685392327606678, 0.18493865430355072, -0.1628035604953766, 0.1886570155620575, -0.1899440735578537, -0.06245267018675804, -0.27305880188941956, -0.030312854796648026, 0.02944166772067547, 0.22649911046028137, 0.057142261415719986, 0.1312471181154251, -0.16981536149978638, -0.12810984253883362, 0.023823313415050507, -0.01990683190524578, -0.003708133939653635, 0.44561707973480225, 0.20361386239528656, -0.0841139703989029, 0.0007848849636502564, 0.03515419363975525, -0.1838592290878296, 0.03522718697786331, -0.1597364991903305, -0.0077457185834646225, 0.2998226284980774, -0.23548144102096558, 0.2483547031879425, -0.13550782203674316, 0.14554913341999054, 0.019281232729554176, -0.28903907537460327, 0.2983475625514984, -0.17612102627754211, 0.14701834321022034, 0.13555489480495453, -0.012922530993819237, -0.0001868104882305488, 0.20309607684612274, 0.07678655534982681, 0.007317002397030592, 0.1082548052072525, -0.17367348074913025, 0.13689479231834412, -0.08340073376893997, 0.2835184335708618, -0.16583262383937836, -0.11800862103700638, -0.027261067181825638, -0.0434601828455925, -0.22610463201999664, 0.033049821853637695, 0.0035409273114055395, -0.005059418734163046, -0.0838347002863884, -0.2352529913187027, 0.05601075664162636, -0.034495264291763306, 0.06844237446784973, 0.12510749697685242, 0.010854358784854412, -0.047392066568136215, -0.09553776681423187, -0.08143875002861023, 0.09630240499973297, 0.14632189273834229, 0.22574618458747864, 0.15323856472969055, 0.3089198172092438, -0.12733696401119232, -0.09450890123844147, 0.10253838449716568, 0.03881393373012543, -0.1361723095178604, 0.15512222051620483, -0.1264713555574417, 0.037041075527668, 0.08752285689115524, 0.09281189739704132, -0.049439411610364914, -0.030825505033135414, -0.10789310932159424, -0.014380838721990585, 0.12248655408620834, 0.29138612747192383, -0.0908123329281807, -0.12518641352653503, 0.02666127122938633, -0.09954620897769928, -0.218610942363739, -0.2823599576950073, 0.05694235861301422, 0.15931810438632965, 0.039675209671258926, -0.18557098507881165, -0.18404141068458557, -0.040793903172016144, 0.18588346242904663, -0.06452266871929169, 0.30646952986717224, 0.17283859848976135, 0.17354431748390198, -0.1523067206144333, 0.05147639662027359, -0.09581726044416428, 0.08983161300420761, -0.06972310692071915, -0.1746864765882492, 0.17613644897937775, -0.20511357486248016, -0.15361125767230988, -0.024756545200943947, 0.06230953708291054, 0.0022847759537398815, -0.08926732838153839, 0.2980775833129883, 0.04717082530260086, 0.10833360254764557, 0.1791786104440689, -0.04146542400121689, 0.06644469499588013, -0.07860282063484192, -0.15318986773490906, -0.12019550800323486, -0.1902872622013092, 0.1552378386259079, -0.048651304095983505, -0.020977288484573364, -0.1240699291229248, -0.014257763512432575, -0.07476488500833511, -0.07353037595748901, -0.06111827492713928, -0.28645241260528564, -0.17590761184692383, -0.12785248458385468, -0.18034213781356812, 0.14121532440185547, 0.10002618283033371, 0.3041982054710388, 0.300016850233078, 0.006731273606419563, 0.2880946695804596, 0.050592608749866486, -0.15775959193706512, 0.25293514132499695, 0.04691340774297714, -0.09160260856151581, -0.15936222672462463, 0.13528360426425934, -0.20154818892478943, -0.1747412234544754, 0.0028201190289109945, 0.2304893136024475, 0.06267169117927551, 0.15780922770500183, 0.028424890711903572, -0.06664534658193588, 0.09534233808517456, -0.28650030493736267, -0.16460300981998444, 0.1010458692908287, -0.36438313126564026, 0.10108248889446259, 0.07872913777828217, 0.14440052211284637, -0.01977568119764328, 0.1857529580593109, -0.17391887307167053, -0.10234145820140839, 0.12005709111690521, 0.099146768450737, -0.06054983660578728, -0.035488665103912354, 0.11391294002532959, 0.06070262938737869, -0.000725475256331265, 0.006065633613616228, -0.023240186274051666, 0.030587995424866676, -0.25849512219429016, -0.008157539181411266, 0.15094026923179626, 0.12772615253925323, -0.038615256547927856, -0.21316997706890106, 0.06913140416145325, -0.21039097011089325, -0.011700757779181004, -0.00850882101804018, -0.0162709578871727, -0.06402438133955002, -0.19714611768722534, -0.04477095976471901, -0.011105912737548351, -0.0787782147526741, 0.20114152133464813, -0.05444422736763954, -0.059913188219070435, -0.060840822756290436, 0.19292578101158142, 0.005920264404267073, 0.008143157698214054, -0.11137595027685165, -0.08914721757173538, 0.19188359379768372, 0.00755415391176939, -0.16642820835113525, 0.009517512284219265, -0.0953005999326706, -0.04030456766486168, 0.23274515569210052, 0.17800119519233704, -0.10282642394304276, -0.08854447305202484, -0.18522967398166656, -0.1278717815876007, -0.0214993916451931, -0.3374190628528595, 0.019468536600470543, 0.006701641250401735, 0.017295269295573235, -0.23456886410713196, -0.038304317742586136, -0.24175044894218445, 0.03614060953259468, 0.12338922172784805, -0.02568652853369713, -0.08423098921775818, 0.13085052371025085, 0.15797331929206848, 0.1138102114200592, -0.019917448982596397, 0.15305523574352264, -0.02668030932545662, 0.11791475862264633, -0.039316412061452866, -0.04142356291413307, 0.1465955227613449, -0.07592470198869705, 0.051147397607564926, 0.11221333593130112, -0.10798034816980362, -0.07629813998937607, -0.08846422284841537, 0.11651114374399185, -0.23580794036388397, -0.11620630323886871, -0.2204321175813675, 0.10538686811923981, -0.027447253465652466, -0.2881525754928589, -0.22762556374073029, 0.18395718932151794, 0.1247711107134819, -0.1701127588748932, -0.0842401459813118, 0.0790816992521286, -0.058115921914577484, 0.15768465399742126, -0.10566658526659012, 0.0994759127497673, -0.051759108901023865, -0.2395564764738083, -0.3691287040710449, -0.012155577540397644, 0.04456797242164612, -0.2348732203245163, -0.1466715931892395, -0.23115365207195282, -0.18273110687732697, -0.06541760265827179, -0.18038351833820343, -0.008861910551786423, -0.3263654410839081, 0.09633924067020416, 0.012746267020702362, 0.02961130067706108, -0.1085159182548523, 0.1987815946340561, 0.20877370238304138, 0.13643331825733185, -0.08773180097341537, -0.11256496608257294, -0.0012770313769578934, -0.20608629286289215, -0.023652218282222748, -0.040157344192266464, 